{"learner":{"attributes":{"best_iteration":"173","best_score":"0.37466395949578873"},"feature_names":[],"feature_types":[],"gradient_booster":{"model":{"gbtree_model_param":{"num_parallel_tree":"1","num_trees":"184"},"iteration_indptr":[0,1,2,3,4,5,6,7,8,9,10,11,12,13,14,15,16,17,18,19,20,21,22,23,24,25,26,27,28,29,30,31,32,33,34,35,36,37,38,39,40,41,42,43,44,45,46,47,48,49,50,51,52,53,54,55,56,57,58,59,60,61,62,63,64,65,66,67,68,69,70,71,72,73,74,75,76,77,78,79,80,81,82,83,84,85,86,87,88,89,90,91,92,93,94,95,96,97,98,99,100,101,102,103,104,105,106,107,108,109,110,111,112,113,114,115,116,117,118,119,120,121,122,123,124,125,126,127,128,129,130,131,132,133,134,135,136,137,138,139,140,141,142,143,144,145,146,147,148,149,150,151,152,153,154,155,156,157,158,159,160,161,162,163,164,165,166,167,168,169,170,171,172,173,174,175,176,177,178,179,180,181,182,183,184],"tree_info":[0,0,0,0,0,0,0,0,0,0,0,0,0,0,0,0,0,0,0,0,0,0,0,0,0,0,0,0,0,0,0,0,0,0,0,0,0,0,0,0,0,0,0,0,0,0,0,0,0,0,0,0,0,0,0,0,0,0,0,0,0,0,0,0,0,0,0,0,0,0,0,0,0,0,0,0,0,0,0,0,0,0,0,0,0,0,0,0,0,0,0,0,0,0,0,0,0,0,0,0,0,0,0,0,0,0,0,0,0,0,0,0,0,0,0,0,0,0,0,0,0,0,0,0,0,0,0,0,0,0,0,0,0,0,0,0,0,0,0,0,0,0,0,0,0,0,0,0,0,0,0,0,0,0,0,0,0,0,0,0,0,0,0,0,0,0,0,0,0,0,0,0,0,0,0,0,0,0,0,0,0,0,0,0],"trees":[{"base_weights":[2.7460163E-3,-7.778217E-1,1.9997557E-1,-8.823556E-1,8.752444E-1,1.990932E-1,-9.1485757E-1,5.161199E-1,1.6479079E0,-9.37614E-2,1.9608335E-1,1.0995932E-1,2.6108602E-2,1.5454362E-1,1.9306897E-1],"categories":[],"categories_nodes":[],"categories_segments":[],"categories_sizes":[],"default_left":[0,0,0,0,0,0,0,0,0,0,0,0,0,0,0],"id":0,"left_children":[1,3,-1,5,7,-1,9,11,13,-1,-1,-1,-1,-1,-1],"loss_changes":[4.5388355E4,3.618329E3,0E0,1.8406328E3,3.4478265E2,0E0,1.2760029E3,1.26468506E2,8.455933E0,0E0,0E0,0E0,0E0,0E0,0E0],"parents":[2147483647,0,0,1,1,3,3,4,4,6,6,7,7,8,8],"right_children":[2,4,-1,6,8,-1,10,12,14,-1,-1,-1,-1,-1,-1],"split_conditions":[8.4822816E-1,1.4526036E-1,1.9997557E-1,-2.027595E-1,2.0272913E0,1.990932E-1,1.198809E1,-7.564343E-1,2.918428E-1,-9.37614E-2,1.9608335E-1,1.0995932E-1,2.6108602E-2,1.5454362E-1,1.9306897E-1],"split_indices":[9,3,0,5,5,0,6,1,1,0,0,0,0,0,0],"split_type":[0,0,0,0,0,0,0,0,0,0,0,0,0,0,0],"sum_hessian":[2.9115477E4,2.093375E4,8.181728E3,1.9689145E4,1.2446039E3,2.195539E2,1.9469592E4,8.5082086E2,3.9378305E2,1.9317398E4,1.5219197E2,2.577719E2,5.9304895E2,2.9378806E2,9.9994995E1],"tree_param":{"num_deleted":"0","num_feature":"17","num_nodes":"15","size_leaf_vector":"1"}},{"base_weights":[-1.07937376E-4,-7.045295E-1,1.818527E-1,-8.0087835E-1,8.334639E-1,1.8078159E-1,-8.2161653E-1,4.5734686E-1,1.4460473E0,-8.4200315E-2,1.7837325E-1,9.604212E-2,8.062031E-3,1.2611128E-1,1.6216886E-1],"categories":[],"categories_nodes":[],"categories_segments":[],"categories_sizes":[],"default_left":[0,0,0,0,0,0,0,0,0,0,0,0,0,0,0],"id":1,"left_children":[1,3,-1,5,7,-1,9,11,13,-1,-1,-1,-1,-1,-1],"loss_changes":[3.7298645E4,3.1104805E3,0E0,1.0699258E3,2.845042E2,0E0,1.0422412E3,1.4553392E2,1.3233582E1,0E0,0E0,0E0,0E0,0E0,0E0],"parents":[2147483647,0,0,1,1,3,3,4,4,6,6,7,7,8,8],"right_children":[2,4,-1,6,8,-1,10,12,14,-1,-1,-1,-1,-1,-1],"split_conditions":[8.4822816E-1,1.4526036E-1,1.818527E-1,-5.717603E-1,2.042674E-1,1.8078159E-1,1.198809E1,-6.6907793E-1,-5.7582922E-2,-8.4200315E-2,1.7837325E-1,9.604212E-2,8.062031E-3,1.2611128E-1,1.6216886E-1],"split_indices":[9,3,0,8,8,0,6,1,1,0,0,0,0,0,0],"split_type":[0,0,0,0,0,0,0,0,0,0,0,0,0,0,0],"sum_hessian":[2.9112871E4,2.0985182E4,8.12769E3,1.97485E4,1.2366812E3,1.5507571E2,1.9593424E4,7.673105E2,4.6937064E2,1.944197E4,1.5145447E2,3.2789526E2,4.3941522E2,2.3262137E2,2.3674925E2],"tree_param":{"num_deleted":"0","num_feature":"17","num_nodes":"15","size_leaf_vector":"1"}},{"base_weights":[-2.9614668E-3,-6.40593E-1,1.6823988E-1,-7.2641426E-1,7.267683E-1,1.7346549E-1,-7.528786E-1,3.8091984E-1,1.3015623E0,-7.71022E-2,1.655399E-1,7.609402E-2,-4.8409076E-3,1.112557E-1,1.496626E-1],"categories":[],"categories_nodes":[],"categories_segments":[],"categories_sizes":[],"default_left":[0,0,0,0,0,0,0,0,0,0,0,0,0,0,0],"id":2,"left_children":[1,3,-1,5,7,-1,9,11,13,-1,-1,-1,-1,-1,-1],"loss_changes":[3.0847133E4,2.4443828E3,0E0,1.2776152E3,2.440987E2,0E0,8.484365E2,1.25600845E2,1.5360596E1,0E0,0E0,0E0,0E0,0E0,0E0],"parents":[2147483647,0,0,1,1,3,3,4,4,6,6,7,7,8,8],"right_children":[2,4,-1,6,8,-1,10,12,14,-1,-1,-1,-1,-1,-1],"split_conditions":[8.4822816E-1,1.4526036E-1,1.6823988E-1,-2.027595E-1,2.042674E-1,1.7346549E-1,1.198809E1,-5.817215E-1,-5.7582922E-2,-7.71022E-2,1.655399E-1,7.609402E-2,-4.8409076E-3,1.112557E-1,1.496626E-1],"split_indices":[9,3,0,5,8,0,6,1,1,0,0,0,0,0,0],"split_type":[0,0,0,0,0,0,0,0,0,0,0,0,0,0,0],"sum_hessian":[2.8702646E4,2.0824586E4,7.87806E3,1.959518E4,1.2294061E3,2.0778227E2,1.9387398E4,7.686056E2,4.608005E2,1.9243105E4,1.4429257E2,4.0730624E2,3.6129935E2,2.3743922E2,2.233613E2],"tree_param":{"num_deleted":"0","num_feature":"17","num_nodes":"15","size_leaf_vector":"1"}},{"base_weights":[-8.062874E-4,-5.772447E-1,1.5767017E-1,-6.55273E-1,6.55141E-1,1.564254E-1,-6.720722E-1,3.740858E-1,1.2697301E0,-7.814961E-2,-3.30542E-2,2.2168519E-2,1.15376174E-1,3.506532E-2,1.2896775E-1],"categories":[],"categories_nodes":[],"categories_segments":[],"categories_sizes":[],"default_left":[0,0,0,0,0,0,0,0,0,0,0,0,0,0,0],"id":3,"left_children":[1,3,-1,5,7,-1,9,11,13,-1,-1,-1,-1,-1,-1],"loss_changes":[2.564404E4,1.9865137E3,0E0,7.2531055E2,2.1204279E2,0E0,7.2023535E2,1.0022842E2,6.618042E0,0E0,0E0,0E0,0E0,0E0,0E0],"parents":[2147483647,0,0,1,1,3,3,4,4,6,6,7,7,8,8],"right_children":[2,4,-1,6,8,-1,10,12,14,-1,-1,-1,-1,-1,-1],"split_conditions":[8.4822816E-1,-2.928474E-2,1.5767017E-1,-5.717603E-1,2.3792217E0,1.564254E-1,2.042674E-1,2.842826E0,-7.564343E-1,-7.814961E-2,-3.30542E-2,2.2168519E-2,1.15376174E-1,3.506532E-2,1.2896775E-1],"split_indices":[9,7,0,8,13,0,8,7,1,0,0,0,0,0,0],"split_type":[0,0,0,0,0,0,0,0,0,0,0,0,0,0,0],"sum_hessian":[2.819883E4,2.0652732E4,7.546097E3,1.942341E4,1.229322E3,1.4521527E2,1.9278195E4,8.44662E2,3.846601E2,1.4599367E4,4.678828E3,7.0762854E2,1.3703345E2,8.565811E0,3.760943E2],"tree_param":{"num_deleted":"0","num_feature":"17","num_nodes":"15","size_leaf_vector":"1"}},{"base_weights":[7.8042485E-3,-5.204416E-1,1.4925522E-1,-5.919156E-1,6.135831E-1,1.5721025E0,-6.147688E-1,3.086728E-1,1.1383172E0,1.4814398E-1,1.7716572E-1,-6.313276E-2,1.5813072E-1,8.481154E-2,4.964708E-3,9.4811454E-2,1.3283604E-1],"categories":[],"categories_nodes":[],"categories_segments":[],"categories_sizes":[],"default_left":[0,0,0,0,0,0,0,0,0,0,0,0,0,0,0,0,0],"id":4,"left_children":[1,3,-1,5,7,9,11,13,15,-1,-1,-1,-1,-1,-1,-1,-1],"loss_changes":[2.1748617E4,1.6581318E3,0E0,9.5250977E2,1.937471E2,1.018219E0,6.9339014E2,1.0736224E2,1.4843201E1,0E0,0E0,0E0,0E0,0E0,0E0,0E0,0E0],"parents":[2147483647,0,0,1,1,3,3,4,4,5,5,6,6,7,7,8,8],"right_children":[2,4,-1,6,8,10,12,14,16,-1,-1,-1,-1,-1,-1,-1,-1],"split_conditions":[8.4822816E-1,-2.928474E-2,1.4925522E-1,-2.027595E-1,2.042674E-1,1.1588733E0,1.198809E1,-7.564343E-1,-5.7582922E-2,1.4814398E-1,1.7716572E-1,-6.313276E-2,1.5813072E-1,8.481154E-2,4.964708E-3,9.4811454E-2,1.3283604E-1],"split_indices":[9,7,0,5,8,4,6,1,1,0,0,0,0,0,0,0,0],"split_type":[0,0,0,0,0,0,0,0,0,0,0,0,0,0,0,0,0],"sum_hessian":[2.772756E4,2.0451828E4,7.2757324E3,1.923969E4,1.212139E3,2.0034985E2,1.903934E4,7.676591E2,4.444799E2,1.4355353E2,5.679633E1,1.889756E4,1.4177867E2,2.4829333E2,5.193658E2,2.2513991E2,2.1933998E2],"tree_param":{"num_deleted":"0","num_feature":"17","num_nodes":"17","size_leaf_vector":"1"}},{"base_weights":[3.107812E-3,-4.8119476E-1,1.4242288E-1,-5.4508364E-1,5.410205E-1,1.4933595E-1,-5.6562287E-1,2.9789397E-1,1.1220424E0,-6.6510305E-2,-2.5978222E-2,6.671242E-2,5.605015E-3,1.03378E-1,1.4197017E-1],"categories":[],"categories_nodes":[],"categories_segments":[],"categories_sizes":[],"default_left":[0,0,0,0,0,0,0,0,0,0,0,0,0,0,0],"id":5,"left_children":[1,3,-1,5,7,-1,9,11,13,-1,-1,-1,-1,-1,-1],"loss_changes":[1.8599338E4,1.3166006E3,0E0,7.950908E2,1.6721863E2,0E0,5.7126025E2,7.4754196E1,7.7156982E0,0E0,0E0,0E0,0E0,0E0,0E0],"parents":[2147483647,0,0,1,1,3,3,4,4,6,6,7,7,8,8],"right_children":[2,4,-1,6,8,-1,10,12,14,-1,-1,-1,-1,-1,-1],"split_conditions":[8.4822816E-1,1.4526036E-1,1.4242288E-1,-2.027595E-1,2.0272913E0,1.4933595E-1,2.042674E-1,-6.6907793E-1,3.791992E-1,-6.6510305E-2,-2.5978222E-2,6.671242E-2,5.605015E-3,1.03378E-1,1.4197017E-1],"split_indices":[9,3,0,5,5,0,8,1,1,0,0,0,0,0,0],"split_type":[0,0,0,0,0,0,0,0,0,0,0,0,0,0,0],"sum_hessian":[2.7022006E4,2.01543E4,6.8677046E3,1.8969186E4,1.1851156E3,1.8851051E2,1.8780674E4,8.36569E2,3.485466E2,1.4170344E4,4.6103306E3,3.3039166E2,5.061773E2,2.7228204E2,7.626455E1],"tree_param":{"num_deleted":"0","num_feature":"17","num_nodes":"15","size_leaf_vector":"1"}},{"base_weights":[8.9625325E-3,-4.2894387E-1,1.3678816E-1,-4.8806497E-1,5.140881E-1,1.423701E-1,-5.067552E-1,2.5807357E-1,9.8674184E-1,-5.2147955E-2,1.5174729E-1,-5.7497784E-3,5.873696E-2,6.909498E-2,1.0564281E-1],"categories":[],"categories_nodes":[],"categories_segments":[],"categories_sizes":[],"default_left":[0,0,0,0,0,0,0,0,0,0,0,0,0,0,0],"id":6,"left_children":[1,3,-1,5,7,-1,9,11,13,-1,-1,-1,-1,-1,-1],"loss_changes":[1.5704863E4,1.1130481E3,0E0,6.718428E2,1.4228748E2,0E0,5.5521094E2,7.957674E1,7.7938232E0,0E0,0E0,0E0,0E0,0E0,0E0],"parents":[2147483647,0,0,1,1,3,3,4,4,6,6,7,7,8,8],"right_children":[2,4,-1,6,8,-1,10,12,14,-1,-1,-1,-1,-1,-1],"split_conditions":[8.4822816E-1,-2.928474E-2,1.3678816E-1,-2.027595E-1,2.042674E-1,1.423701E-1,1.198809E1,1.5921055E0,2.0272913E0,-5.2147955E-2,1.5174729E-1,-5.7497784E-3,5.873696E-2,6.909498E-2,1.0564281E-1],"split_indices":[9,7,0,5,8,0,6,7,5,0,0,0,0,0,0],"split_type":[0,0,0,0,0,0,0,0,0,0,0,0,0,0,0],"sum_hessian":[2.6389225E4,1.9958393E4,6.4308306E3,1.878142E4,1.1769733E3,1.811095E2,1.860031E4,7.6445154E2,4.1252176E2,1.8466725E4,1.3358545E2,3.907822E2,3.7366937E2,8.073725E1,3.3178452E2],"tree_param":{"num_deleted":"0","num_feature":"17","num_nodes":"15","size_leaf_vector":"1"}},{"base_weights":[-6.7585516E-3,-4.0999368E-1,1.3208145E-1,-4.6467516E-1,4.6712902E-1,-4.7898588E-1,1.4457485E-1,2.520299E-1,1.0084089E0,1.8167345E-1,-4.9103525E-2,1.4583239E-2,1.0160239E-1,-1.4007679E-2,1.0372422E-1],"categories":[],"categories_nodes":[],"categories_segments":[],"categories_sizes":[],"default_left":[0,0,0,0,0,0,0,0,0,0,0,0,0,0,0],"id":7,"left_children":[1,3,-1,5,7,9,-1,11,13,-1,-1,-1,-1,-1,-1],"loss_changes":[1.3753364E4,9.453699E2,0E0,5.0784644E2,1.3444499E2,5.1023242E2,0E0,6.7132416E1,1.1029114E1,0E0,0E0,0E0,0E0,0E0,0E0],"parents":[2147483647,0,0,1,1,3,3,4,4,5,5,7,7,8,8],"right_children":[2,4,-1,6,8,10,-1,12,14,-1,-1,-1,-1,-1,-1],"split_conditions":[8.4822816E-1,-2.928474E-2,1.3208145E-1,1.198809E1,2.3792217E0,-1.1058601E0,1.4457485E-1,3.1012163E0,-7.564343E-1,1.8167345E-1,-4.9103525E-2,1.4583239E-2,1.0160239E-1,-1.4007679E-2,1.0372422E-1],"split_indices":[9,7,0,6,13,1,0,7,1,0,0,0,0,0,0],"split_type":[0,0,0,0,0,0,0,0,0,0,0,0,0,0,0],"sum_hessian":[2.5689648E4,1.970513E4,5.9845176E3,1.8549209E4,1.1559225E3,1.8412037E4,1.3717267E2,8.2825E2,3.276725E2,9.535114E1,1.8316686E4,7.282165E2,1.0003347E2,7.9304094E0,3.197421E2],"tree_param":{"num_deleted":"0","num_feature":"17","num_nodes":"15","size_leaf_vector":"1"}},{"base_weights":[5.646425E-3,-3.6155382E-1,1.2810855E-1,-4.1059414E-1,4.240249E-1,-5.0193304E-1,-1.3112131E-1,1.812016E-1,8.9090234E-1,-2.7703414E-2,-6.9013864E-2,-1.6296519E-2,1.9273889E-1,6.718419E-2,-4.2628185E-3,6.729358E-2,1.121423E-1],"categories":[],"categories_nodes":[],"categories_segments":[],"categories_sizes":[],"default_left":[0,0,0,0,0,0,0,0,0,0,0,0,0,0,0,0,0],"id":8,"left_children":[1,3,-1,5,7,9,11,13,15,-1,-1,-1,-1,-1,-1,-1,-1],"loss_changes":[1.177928E4,7.5251904E2,0E0,4.6916064E2,1.2998083E2,5.861929E2,2.97206E2,8.310071E1,1.8967651E1,0E0,0E0,0E0,0E0,0E0,0E0,0E0,0E0],"parents":[2147483647,0,0,1,1,3,3,4,4,5,5,6,6,7,7,8,8],"right_children":[2,4,-1,6,8,10,12,14,16,-1,-1,-1,-1,-1,-1,-1,-1],"split_conditions":[8.4822816E-1,1.4526036E-1,1.2810855E-1,2.042674E-1,2.042674E-1,-4.0700865E-1,6.760495E0,-7.564343E-1,-5.7582922E-2,-2.7703414E-2,-6.9013864E-2,-1.6296519E-2,1.9273889E-1,6.718419E-2,-4.2628185E-3,6.729358E-2,1.121423E-1],"split_indices":[9,3,0,8,8,1,2,1,1,0,0,0,0,0,0,0,0],"split_type":[0,0,0,0,0,0,0,0,0,0,0,0,0,0,0,0,0],"sum_hessian":[2.5149057E4,1.9527723E4,5.621335E3,1.8380766E4,1.1469554E3,1.3852589E4,4.528178E3,7.554391E2,3.9151633E2,6.312203E3,7.5403853E3,4.460104E3,6.80742E1,2.3603755E2,5.1940155E2,2.0325229E2,1.8826405E2],"tree_param":{"num_deleted":"0","num_feature":"17","num_nodes":"17","size_leaf_vector":"1"}},{"base_weights":[2.3863008E-3,-3.349335E-1,1.2472482E-1,1.4337955E-1,-3.5338837E-1,-3.9654115E-1,3.5315445E-1,1.6861989E-1,-4.0690456E-2,1.5717562E-2,8.790832E-2],"categories":[],"categories_nodes":[],"categories_segments":[],"categories_sizes":[],"default_left":[0,0,0,0,0,0,0,0,0,0,0],"id":9,"left_children":[1,3,-1,-1,5,7,9,-1,-1,-1,-1],"loss_changes":[1.0261973E4,6.281384E2,0E0,0E0,5.803572E2,3.878059E2,1.12818756E2,0E0,0E0,0E0,0E0],"parents":[2147483647,0,0,1,1,4,4,5,5,6,6],"right_children":[2,4,-1,-1,6,8,10,-1,-1,-1,-1],"split_conditions":[8.4822816E-1,-2.027595E-1,1.2472482E-1,1.4337955E-1,1.4526036E-1,-1.1058601E0,2.0272913E0,1.6861989E-1,-4.0690456E-2,1.5717562E-2,8.790832E-2],"split_indices":[9,5,0,0,3,1,5,0,0,0,0],"split_type":[0,0,0,0,0,0,0,0,0,0,0],"sum_hessian":[2.4436127E4,1.9226941E4,5.209187E3,1.9774979E2,1.9029191E4,1.7934277E4,1.0949147E3,8.799574E1,1.7846281E4,7.9862054E2,2.9629416E2],"tree_param":{"num_deleted":"0","num_feature":"17","num_nodes":"11","size_leaf_vector":"1"}},{"base_weights":[1.0448616E-3,-3.071109E-1,1.2182136E-1,-3.4857607E-1,3.628135E-1,-3.6126447E-1,1.3995355E-1,1.5814567E-1,7.872836E-1,-4.4539575E-2,-1.0638388E-2,-2.8712828E-2,3.871719E-2,5.8164086E-2,1.0269232E-1],"categories":[],"categories_nodes":[],"categories_segments":[],"categories_sizes":[],"default_left":[0,0,0,0,0,0,0,0,0,0,0,0,0,0,0],"id":10,"left_children":[1,3,-1,5,7,9,-1,11,13,-1,-1,-1,-1,-1,-1],"loss_changes":[8.916575E3,5.2708325E2,0E0,3.9675854E2,9.597713E1,3.8029004E2,0E0,7.634984E1,1.712445E1,0E0,0E0,0E0,0E0,0E0,0E0],"parents":[2147483647,0,0,1,1,3,3,4,4,5,5,7,7,8,8],"right_children":[2,4,-1,6,8,10,-1,12,14,-1,-1,-1,-1,-1,-1],"split_conditions":[-1.4561805E-1,1.4526036E-1,1.2182136E-1,1.198809E1,2.042674E-1,2.042674E-1,1.3995355E-1,7.8547233E-1,-5.7582922E-2,-4.4539575E-2,-1.0638388E-2,-2.8712828E-2,3.871719E-2,5.8164086E-2,1.0269232E-1],"split_indices":[16,3,0,6,8,8,0,7,1,0,0,0,0,0,0],"split_type":[0,0,0,0,0,0,0,0,0,0,0,0,0,0,0],"sum_hessian":[2.3770623E4,1.8968928E4,4.8016963E3,1.7863727E4,1.1052009E3,1.7735787E4,1.2793916E2,7.465888E2,3.586121E2,1.3333803E4,4.401985E3,2.5349294E2,4.9309586E2,1.9484029E2,1.637718E2],"tree_param":{"num_deleted":"0","num_feature":"17","num_nodes":"15","size_leaf_vector":"1"}},{"base_weights":[1.046396E-2,-2.6864862E-1,1.1931405E-1,-3.0683064E-1,3.4344152E-1,1.5703411E0,-3.1799436E-1,1.9328888E-1,8.02512E-1,2.1339531E-1,1.1522943E-1,-3.304738E-2,1.3872468E-1,1.3770558E-2,1.5041336E-1,7.071745E-2,1.1643676E-1],"categories":[],"categories_nodes":[],"categories_segments":[],"categories_sizes":[],"default_left":[0,0,0,0,0,0,0,0,0,0,0,0,0,0,0,0,0],"id":11,"left_children":[1,3,-1,5,7,9,11,13,15,-1,-1,-1,-1,-1,-1,-1,-1],"loss_changes":[7.647131E3,4.381411E2,0E0,3.702257E2,7.573712E1,2.2156189E1,3.7370447E2,6.0337105E1,8.527039E0,0E0,0E0,0E0,0E0,0E0,0E0,0E0,0E0],"parents":[2147483647,0,0,1,1,3,3,4,4,5,5,6,6,7,7,8,8],"right_children":[2,4,-1,6,8,10,12,14,16,-1,-1,-1,-1,-1,-1,-1,-1],"split_conditions":[8.4822816E-1,1.4526036E-1,1.1931405E-1,-1.1058601E0,2.3792217E0,-1.1932164E0,6.760495E0,2.0964038E0,3.791992E-1,2.1339531E-1,1.1522943E-1,-3.304738E-2,1.3872468E-1,1.3770558E-2,1.5041336E-1,7.071745E-2,1.1643676E-1],"split_indices":[9,3,0,1,13,1,2,3,1,0,0,0,0,0,0,0,0],"split_type":[0,0,0,0,0,0,0,0,0,0,0,0,0,0,0,0,0],"sum_hessian":[2.316414E4,1.8741828E4,4.4223135E3,1.7641834E4,1.0999944E3,1.03471466E2,1.7538361E4,8.299542E2,2.7004013E2,4.2316147E1,6.1155323E1,1.7411744E4,1.2661808E2,7.972536E2,3.2700626E1,2.1606744E2,5.3972687E1],"tree_param":{"num_deleted":"0","num_feature":"17","num_nodes":"17","size_leaf_vector":"1"}},{"base_weights":[6.283683E-3,-2.5104102E-1,1.1713719E-1,1.393832E-1,-2.6824775E-1,-2.7999112E-1,1.3728277E-1,-2.8963927E-2,1.3946299E-1],"categories":[],"categories_nodes":[],"categories_segments":[],"categories_sizes":[],"default_left":[0,0,0,0,0,0,0,0,0],"id":12,"left_children":[1,3,-1,-1,5,7,-1,-1,-1],"loss_changes":[6.802738E3,5.263999E2,0E0,0E0,3.5487036E2,2.9549817E2,0E0,0E0,0E0],"parents":[2147483647,0,0,1,1,4,4,5,5],"right_children":[2,4,-1,-1,6,8,-1,-1,-1],"split_conditions":[8.4822816E-1,-2.027595E-1,1.1713719E-1,1.393832E-1,1.198809E1,1.2527635E0,1.3728277E-1,-2.8963927E-2,1.3946299E-1],"split_indices":[9,5,0,0,6,1,0,0,0],"split_type":[0,0,0,0,0,0,0,0,0],"sum_hessian":[2.2688482E4,1.8584617E4,4.1038667E3,1.9156935E2,1.8393047E4,1.8263188E4,1.2986023E2,1.815939E4,1.0379629E2],"tree_param":{"num_deleted":"0","num_feature":"17","num_nodes":"9","size_leaf_vector":"1"}},{"base_weights":[5.6204926E-3,-2.3024593E-1,1.1523771E-1,-3.1760862E-1,2.6801784E-2,-9.439708E-2,-5.1624566E-1,-2.2169514E-2,1.2561274E0,1.4062993E-1,-1.2174312E-2,1.259732E-1,-5.2423663E-2,-4.3617575E-3,1.4671454E-1,1.1032329E-1,1.8951318E-1],"categories":[],"categories_nodes":[],"categories_segments":[],"categories_sizes":[],"default_left":[0,0,0,0,0,0,0,0,0,0,0,0,0,0,0,0,0],"id":13,"left_children":[1,3,-1,5,7,9,11,13,15,-1,-1,-1,-1,-1,-1,-1,-1],"loss_changes":[5.9767847E3,4.11573E2,0E0,6.064293E2,2.799534E2,2.6454086E2,1.03372314E2,1.429334E2,1.5314545E1,0E0,0E0,0E0,0E0,0E0,0E0,0E0,0E0],"parents":[2147483647,0,0,1,1,3,3,4,4,5,5,6,6,7,7,8,8],"right_children":[2,4,-1,6,8,10,12,14,16,-1,-1,-1,-1,-1,-1,-1,-1],"split_conditions":[8.4822816E-1,2.042674E-1,1.1523771E-1,-4.0700865E-1,9.033378E-1,-1.1058601E0,-5.717603E-1,6.760495E0,1.6021892E0,1.4062993E-1,-1.2174312E-2,1.259732E-1,-5.2423663E-2,-4.3617575E-3,1.4671454E-1,1.1032329E-1,1.8951318E-1],"split_indices":[9,8,0,1,1,1,8,2,1,0,0,0,0,0,0,0,0],"split_type":[0,0,0,0,0,0,0,0,0,0,0,0,0,0,0,0,0],"sum_hessian":[2.2094861E4,1.8326287E4,3.7685757E3,1.3677489E4,4.6487974E3,6.4410527E3,7.236436E3,4.4716475E3,1.7715015E2,1.1436746E2,6.3266855E3,3.1712606E1,7.2047236E3,4.409121E3,6.2526333E1,1.4514725E2,3.200289E1],"tree_param":{"num_deleted":"0","num_feature":"17","num_nodes":"17","size_leaf_vector":"1"}},{"base_weights":[6.7657568E-3,-2.0767727E-1,1.1357367E-1,-2.8735417E-1,2.2706226E-2,-9.163511E-2,-4.6304E-1,-2.0086162E-2,1.0810641E0,1.3045846E-1,-1.1733821E-2,-3.55211E-2,-5.8933016E-2,-6.8148635E-3,6.527757E-2,8.299933E-2,1.5127894E-1],"categories":[],"categories_nodes":[],"categories_segments":[],"categories_sizes":[],"default_left":[0,0,0,0,0,0,0,0,0,0,0,0,0,0,0,0,0],"id":14,"left_children":[1,3,-1,5,7,9,11,13,15,-1,-1,-1,-1,-1,-1,-1,-1],"loss_changes":[5.2616313E3,3.3526758E2,0E0,4.665918E2,2.1262514E2,2.3057265E2,9.717346E1,1.4598761E2,1.8520386E1,0E0,0E0,0E0,0E0,0E0,0E0,0E0,0E0],"parents":[2147483647,0,0,1,1,3,3,4,4,5,5,6,6,7,7,8,8],"right_children":[2,4,-1,6,8,10,12,14,16,-1,-1,-1,-1,-1,-1,-1,-1],"split_conditions":[8.4822816E-1,2.042674E-1,1.1357367E-1,-4.0700865E-1,9.033378E-1,-1.1058601E0,-5.7582922E-2,1.4526036E-1,1.34012E0,1.3045846E-1,-1.1733821E-2,-3.55211E-2,-5.8933016E-2,-6.8148635E-3,6.527757E-2,8.299933E-2,1.5127894E-1],"split_indices":[9,8,0,1,1,1,1,3,1,0,0,0,0,0,0,0,0],"split_type":[0,0,0,0,0,0,0,0,0,0,0,0,0,0,0,0,0],"sum_hessian":[2.173133E4,1.8263143E4,3.4681873E3,1.356984E4,4.6933037E3,6.419667E3,7.1501724E3,4.511858E3,1.8144608E2,1.15144394E2,6.3045225E3,3.859052E3,3.2911204E3,4.211901E3,2.9995706E2,1.1657445E2,6.487163E1],"tree_param":{"num_deleted":"0","num_feature":"17","num_nodes":"17","size_leaf_vector":"1"}},{"base_weights":[4.861905E-3,-1.9049262E-1,1.1211014E-1,1.345219E-1,-2.0579492E-1,-2.8356928E-1,1.594094E-2,-2.9357264E-2,1.340569E-1,-6.838002E-4,1.4370316E-1],"categories":[],"categories_nodes":[],"categories_segments":[],"categories_sizes":[],"default_left":[0,0,0,0,0,0,0,0,0,0,0],"id":15,"left_children":[1,3,-1,-1,5,7,9,-1,-1,-1,-1],"loss_changes":[4.629462E3,4.248717E2,0E0,0E0,3.0853314E2,2.1558215E2,1.5042502E2,0E0,0E0,0E0,0E0],"parents":[2147483647,0,0,1,1,4,4,5,5,6,6],"right_children":[2,4,-1,-1,6,8,10,-1,-1,-1,-1],"split_conditions":[8.4822816E-1,-2.027595E-1,1.1211014E-1,1.345219E-1,2.042674E-1,1.198809E1,6.760495E0,-2.9357264E-2,1.340569E-1,-6.838002E-4,1.4370316E-1],"split_indices":[9,5,0,0,8,6,2,0,0,0,0],"split_type":[0,0,0,0,0,0,0,0,0,0,0],"sum_hessian":[2.1228006E4,1.806692E4,3.1610857E3,1.7739084E2,1.788953E4,1.3243917E4,4.6456123E3,1.3163658E4,8.025828E1,4.573301E3,7.231116E1],"tree_param":{"num_deleted":"0","num_feature":"17","num_nodes":"11","size_leaf_vector":"1"}},{"base_weights":[1.0613639E-2,-1.6759236E-1,1.1081928E-1,1.3084018E-1,-1.8139465E-1,-1.9171384E-1,1.3037126E-1,-2.1553656E-2,4.3686252E-2],"categories":[],"categories_nodes":[],"categories_segments":[],"categories_sizes":[],"default_left":[0,0,0,0,0,0,0,0,0],"id":16,"left_children":[1,3,-1,-1,5,7,-1,-1,-1],"loss_changes":[4.0597944E3,3.640194E2,0E0,0E0,2.713863E2,2.63211E2,0E0,0E0,0E0],"parents":[2147483647,0,0,1,1,4,4,5,5],"right_children":[2,4,-1,-1,6,8,-1,-1,-1],"split_conditions":[8.4822816E-1,-2.027595E-1,1.1081928E-1,1.3084018E-1,1.198809E1,7.8547233E-1,1.3037126E-1,-2.1553656E-2,4.3686252E-2],"split_indices":[9,5,0,0,6,7,0,0,0],"split_type":[0,0,0,0,0,0,0,0,0],"sum_hessian":[2.0754156E4,1.7855875E4,2.8982822E3,1.6455763E2,1.7691316E4,1.7570104E4,1.2121392E2,1.6929154E4,6.4094946E2],"tree_param":{"num_deleted":"0","num_feature":"17","num_nodes":"9","size_leaf_vector":"1"}},{"base_weights":[1.1641603E-2,-1.4958626E-1,1.0967691E-1,-1.7904161E-1,3.1560615E-1,-1.8941662E-1,1.148893E0,2.3179874E-1,9.7456634E-1,1.19669296E-1,-1.9701116E-2,9.168113E-2,1.6554272E-1,9.149845E-3,6.772409E-2,6.716943E-2,1.2399148E-1],"categories":[],"categories_nodes":[],"categories_segments":[],"categories_sizes":[],"default_left":[0,0,0,0,0,0,0,0,0,0,0,0,0,0,0,0,0],"id":17,"left_children":[1,3,-1,5,7,9,11,13,15,-1,-1,-1,-1,-1,-1,-1,-1],"loss_changes":[3.5624912E3,2.4298032E2,0E0,2.2993378E2,5.809604E1,1.7440369E2,1.3694183E1,5.857268E1,8.718338E0,0E0,0E0,0E0,0E0,0E0,0E0,0E0,0E0],"parents":[2147483647,0,0,1,1,3,3,4,4,5,5,6,6,7,7,8,8],"right_children":[2,4,-1,6,8,10,12,14,16,-1,-1,-1,-1,-1,-1,-1,-1],"split_conditions":[8.4822816E-1,1.4526036E-1,1.0967691E-1,6.760495E0,3.1012163E0,-5.717603E-1,1.1588733E0,2.3792217E0,3.716794E0,1.19669296E-1,-1.9701116E-2,9.168113E-2,1.6554272E-1,9.149845E-3,6.772409E-2,6.716943E-2,1.2399148E-1],"split_indices":[9,3,0,2,7,8,4,13,7,0,0,0,0,0,0,0,0],"split_type":[0,0,0,0,0,0,0,0,0,0,0,0,0,0,0,0,0],"sum_hessian":[2.0360648E4,1.7727557E4,2.633092E3,1.6672492E4,1.0550643E3,1.6544092E4,1.2839978E2,9.3721936E2,1.17845E2,8.9298485E1,1.6454793E4,8.998212E1,3.8417667E1,7.136481E2,2.2357133E2,5.6680508E1,6.1164494E1],"tree_param":{"num_deleted":"0","num_feature":"17","num_nodes":"17","size_leaf_vector":"1"}},{"base_weights":[8.120055E-3,-1.4005573E-1,1.0866415E-1,1.2633123E-1,-1.5207043E-1,-2.2525181E-1,5.3943682E-2,-2.3353184E-2,1.220482E-1,1.6155689E-3,6.877298E-2],"categories":[],"categories_nodes":[],"categories_segments":[],"categories_sizes":[],"default_left":[0,0,0,0,0,0,0,0,0,0,0],"id":18,"left_children":[1,3,-1,-1,5,7,9,-1,-1,-1,-1],"loss_changes":[3.2046106E3,2.97459E2,0E0,0E0,2.63572E2,1.5470264E2,1.09749596E2,0E0,0E0,0E0,0E0],"parents":[2147483647,0,0,1,1,4,4,5,5,6,6],"right_children":[2,4,-1,-1,6,8,10,-1,-1,-1,-1],"split_conditions":[-1.4561805E-1,-2.027595E-1,1.0866415E-1,1.2633123E-1,2.042674E-1,1.198809E1,2.7198904E0,-2.3353184E-2,1.220482E-1,1.6155689E-3,6.877298E-2],"split_indices":[16,5,0,0,8,6,4,0,0,0,0],"split_type":[0,0,0,0,0,0,0,0,0,0,0],"sum_hessian":[2.0050582E4,1.7629387E4,2.4211943E3,1.4876584E2,1.7480621E4,1.2898616E4,4.582005E3,1.2825997E4,7.261871E1,4.3251533E3,2.5685153E2],"tree_param":{"num_deleted":"0","num_feature":"17","num_nodes":"11","size_leaf_vector":"1"}},{"base_weights":[1.1159042E-2,-1.23481564E-1,1.0776333E-1,1.2279357E-1,-1.3377114E-1,-2.0451427E-1,6.268473E-2,-2.2598863E-2,3.1900264E-2,2.6648804E-3,6.6318356E-2],"categories":[],"categories_nodes":[],"categories_segments":[],"categories_sizes":[],"default_left":[0,0,0,0,0,0,0,0,0,0,0],"id":19,"left_children":[1,3,-1,-1,5,7,9,-1,-1,-1,-1],"loss_changes":[2.821011E3,2.4273178E2,0E0,0E0,2.4062839E2,1.4318005E2,9.91898E1,0E0,0E0,0E0,0E0],"parents":[2147483647,0,0,1,1,4,4,5,5,6,6],"right_children":[2,4,-1,-1,6,8,10,-1,-1,-1,-1],"split_conditions":[8.4822816E-1,-2.027595E-1,1.0776333E-1,1.2279357E-1,2.042674E-1,7.4734133E-1,2.7198904E0,-2.2598863E-2,3.1900264E-2,2.6648804E-3,6.6318356E-2],"split_indices":[9,5,0,0,8,7,4,0,0,0,0],"split_type":[0,0,0,0,0,0,0,0,0,0,0],"sum_hessian":[1.9644266E4,1.7443E4,2.2012656E3,1.3091164E2,1.7312088E4,1.272854E4,4.5835474E3,1.2227542E4,5.0099835E2,4.325046E3,2.585016E2],"tree_param":{"num_deleted":"0","num_feature":"17","num_nodes":"11","size_leaf_vector":"1"}},{"base_weights":[1.3505261E-2,-1.0839113E-1,1.0696083E-1,1.200174E-1,-1.1815329E-1,-1.2630145E-1,1.2303376E-1,-1.3536035E-2,1.0593066E-1],"categories":[],"categories_nodes":[],"categories_segments":[],"categories_sizes":[],"default_left":[0,0,0,0,0,0,0,0,0],"id":20,"left_children":[1,3,-1,-1,5,7,-1,-1,-1],"loss_changes":[2.495974E3,2.2219034E2,0E0,0E0,1.897427E2,1.843583E2,0E0,0E0,0E0],"parents":[2147483647,0,0,1,1,4,4,5,5],"right_children":[2,4,-1,-1,6,8,-1,-1,-1],"split_conditions":[8.4822816E-1,-2.027595E-1,1.0696083E-1,1.200174E-1,1.198809E1,6.760495E0,1.2303376E-1,-1.3536035E-2,1.0593066E-1],"split_indices":[9,5,0,0,6,2,0,0,0],"split_type":[0,0,0,0,0,0,0,0,0],"sum_hessian":[1.938654E4,1.7381273E4,2.0052653E3,1.27804665E2,1.7253469E4,1.7150744E4,1.0272582E2,1.7021572E4,1.2917122E2],"tree_param":{"num_deleted":"0","num_feature":"17","num_nodes":"9","size_leaf_vector":"1"}},{"base_weights":[8.881143E-3,-1.0214379E-1,1.0624438E-1,1.2728026E0,-1.1120513E-1,1.8332219E0,9.235509E-2,1.181561E-1,-1.19841196E-1,6.6855304E-2,1.8612981E-1,-1.2764466E-2,1.2073815E-1],"categories":[],"categories_nodes":[],"categories_segments":[],"categories_sizes":[],"default_left":[0,0,0,0,0,0,0,0,0,0,0,0,0],"id":21,"left_children":[1,3,-1,5,7,9,-1,-1,11,-1,-1,-1,-1],"loss_changes":[2.2374766E3,2.1574034E2,0E0,2.0498138E1,1.9208539E2,1.4582825E-1,0E0,0E0,1.77043E2,0E0,0E0,0E0,0E0],"parents":[2147483647,0,0,1,1,3,3,4,4,5,5,8,8],"right_children":[2,4,-1,6,8,10,-1,-1,12,-1,-1,-1,-1],"split_conditions":[-1.4561805E-1,-1.1058601E0,1.0624438E-1,-1.1932164E0,-2.027595E-1,-2.027595E-1,9.235509E-2,1.181561E-1,1.198809E1,6.6855304E-2,1.8612981E-1,-1.2764466E-2,1.2073815E-1],"split_indices":[16,1,0,1,5,5,0,0,6,0,0,0,0],"split_type":[0,0,0,0,0,0,0,0,0,0,0,0,0],"sum_hessian":[1.912643E4,1.7303846E4,1.8225846E3,1.1237829E2,1.7191467E4,4.1514297E1,7.086399E1,1.13180786E2,1.7078287E4,1.5612677E0,3.995303E1,1.697936E4,9.8926956E1],"tree_param":{"num_deleted":"0","num_feature":"17","num_nodes":"13","size_leaf_vector":"1"}},{"base_weights":[7.3914225E-3,-9.423584E-2,1.0560383E-1,-1.214153E-1,3.2234854E-1,-1.305218E-1,9.968485E-1,2.684644E-1,1.2536523E0,1.1411536E-1,-1.3808662E-2,1.0438281E-1,8.314314E-3,1.6237529E-2,6.519221E-2,1.2741022E-1,3.410643E-2],"categories":[],"categories_nodes":[],"categories_segments":[],"categories_sizes":[],"default_left":[0,0,0,0,0,0,0,0,0,0,0,0,0,0,0,0,0],"id":22,"left_children":[1,3,-1,5,7,9,11,13,15,-1,-1,-1,-1,-1,-1,-1,-1],"loss_changes":[2.0051909E3,1.9425723E2,0E0,1.6411809E2,5.2398605E1,1.5382889E2,5.5018005E0,4.0357735E1,6.3301086E-1,0E0,0E0,0E0,0E0,0E0,0E0,0E0,0E0],"parents":[2147483647,0,0,1,1,3,3,4,4,5,5,6,6,7,7,8,8],"right_children":[2,4,-1,6,8,10,12,14,16,-1,-1,-1,-1,-1,-1,-1,-1],"split_conditions":[8.4822816E-1,1.4526036E-1,1.0560383E-1,6.760495E0,2.0964038E0,-2.027595E-1,1.965678E1,2.0272913E0,4.2809076E0,1.1411536E-1,-1.3808662E-2,1.0438281E-1,8.314314E-3,1.6237529E-2,6.519221E-2,1.2741022E-1,3.410643E-2],"split_indices":[9,3,0,2,3,5,14,5,4,0,0,0,0,0,0,0,0],"split_type":[0,0,0,0,0,0,0,0,0,0,0,0,0,0,0,0,0],"sum_hessian":[1.8813588E4,1.7152227E4,1.6613596E3,1.610236E4,1.0498674E3,1.5973167E4,1.2919295E2,9.936635E2,5.6203938E1,9.357154E1,1.5879596E4,1.2273968E2,6.4532666E0,7.794428E2,2.1422067E2,5.4584625E1,1.6193128E0],"tree_param":{"num_deleted":"0","num_feature":"17","num_nodes":"17","size_leaf_vector":"1"}},{"base_weights":[4.4841506E-3,-8.80044E-2,1.0502978E-1,-1.464693E-1,7.3369145E-2,-1.5295917E-1,1.1359137E-1,3.851825E-2,5.690227E-1,1.10304356E-1,-1.5889527E-2,2.3202396E-3,9.750556E-2,4.9863797E-2,1.0899166E-1],"categories":[],"categories_nodes":[],"categories_segments":[],"categories_sizes":[],"default_left":[0,0,0,0,0,0,0,0,0,0,0,0,0,0,0],"id":23,"left_children":[1,3,-1,5,7,9,-1,11,13,-1,-1,-1,-1,-1,-1],"loss_changes":[1.7969321E3,1.610437E2,0E0,1.04448975E2,7.8399506E1,9.312698E1,0E0,6.0834007E1,1.0388275E1,0E0,0E0,0E0,0E0,0E0,0E0],"parents":[2147483647,0,0,1,1,3,3,4,4,5,5,7,7,8,8],"right_children":[2,4,-1,6,8,10,-1,12,14,-1,-1,-1,-1,-1,-1],"split_conditions":[8.4822816E-1,2.042674E-1,1.0502978E-1,1.198809E1,1.4526036E-1,-5.717603E-1,1.1359137E-1,6.760495E0,2.0964038E0,1.10304356E-1,-1.5889527E-2,2.3202396E-3,9.750556E-2,4.9863797E-2,1.0899166E-1],"split_indices":[9,8,0,6,3,8,0,2,3,0,0,0,0,0,0],"split_type":[0,0,0,0,0,0,0,0,0,0,0,0,0,0,0],"sum_hessian":[1.8575637E4,1.7067182E4,1.5084536E3,1.2528321E4,4.538861E3,1.2466114E4,6.220762E1,4.2416924E3,2.9716846E2,5.7770588E1,1.2408344E4,4.174449E3,6.724294E1,2.635183E2,3.3650127E1],"tree_param":{"num_deleted":"0","num_feature":"17","num_nodes":"15","size_leaf_vector":"1"}},{"base_weights":[4.0854984E-3,-6.1931897E-2,8.4448606E-1,1.0784902E-1,-8.029027E-2,6.2725043E-1,1.0195858E0,-1.1162788E-1,3.5211888E-1,4.3175232E-1,1.0123064E-1,9.7848386E-1,1.149009E0,1.2142813E-1,-1.1943714E-2,1.3677596E-2,7.151638E-2,6.2979385E-2,1.9950991E-2,8.5855626E-2,1.0504122E-1,1.1545539E-1,1.0548717E-2],"categories":[],"categories_nodes":[],"categories_segments":[],"categories_sizes":[],"default_left":[0,0,0,0,0,0,0,0,0,0,0,0,0,0,0,0,0,0,0,0,0,0,0],"id":24,"left_children":[1,3,5,-1,7,9,11,13,15,17,-1,19,21,-1,-1,-1,-1,-1,-1,-1,-1,-1,-1],"loss_changes":[1.0175157E3,3.560912E2,5.016986E1,0E0,2.268194E2,4.4635254E1,2.8015137E0,1.6173073E2,8.833482E1,1.8219666E1,0E0,3.9880981E0,8.7428284E-1,0E0,0E0,0E0,0E0,0E0,0E0,0E0,0E0,0E0,0E0],"parents":[2147483647,0,0,1,1,2,2,4,4,5,5,6,6,7,7,8,8,9,9,11,11,12,12],"right_children":[2,4,6,-1,8,10,12,14,16,18,-1,20,22,-1,-1,-1,-1,-1,-1,-1,-1,-1,-1],"split_conditions":[9.8029506E-1,-2.027595E-1,6.412685E-1,1.0784902E-1,1.4526036E-1,1.4526036E-1,2.0272913E0,-1.1058601E0,2.042674E-1,2.0272913E0,1.0123064E-1,1.2527635E0,1.965678E1,1.2142813E-1,-1.1943714E-2,1.3677596E-2,7.151638E-2,6.2979385E-2,1.9950991E-2,8.5855626E-2,1.0504122E-1,1.1545539E-1,1.0548717E-2],"split_indices":[8,5,1,0,3,3,5,1,8,5,0,1,14,0,0,0,0,0,0,0,0,0,0],"split_type":[0,0,0,0,0,0,0,0,0,0,0,0,0,0,0,0,0,0,0,0,0,0,0],"sum_hessian":[1.8337934E4,1.7003182E4,1.3347532E3,2.6846384E2,1.6734717E4,5.977472E2,7.370059E2,1.5604563E4,1.1301538E3,3.978664E2,1.9988083E2,5.6586084E2,1.7114514E2,9.0464035E1,1.55141E4,7.102439E2,4.1990994E2,2.138214E2,1.84045E2,2.1699585E2,3.4886496E2,1.7013472E2,1.0104235E0],"tree_param":{"num_deleted":"0","num_feature":"17","num_nodes":"23","size_leaf_vector":"1"}},{"base_weights":[1.3380386E-2,-6.413749E-2,1.0414823E-1,-7.068332E-2,1.1503682E-1,-8.5090116E-2,4.6878925E-1,-1.3854714E-2,6.0177487E-3,3.7132803E-2,1.2170237E-1],"categories":[],"categories_nodes":[],"categories_segments":[],"categories_sizes":[],"default_left":[0,0,0,0,0,0,0,0,0,0,0],"id":25,"left_children":[1,3,-1,5,-1,7,9,-1,-1,-1,-1],"loss_changes":[1.4475516E3,1.3435645E2,0E0,1.3061404E2,0E0,1.27086395E2,3.1426376E1,0E0,0E0,0E0,0E0],"parents":[2147483647,0,0,1,1,3,3,5,5,6,6],"right_children":[2,4,-1,6,-1,8,10,-1,-1,-1,-1],"split_conditions":[8.4822816E-1,1.198809E1,1.0414823E-1,1.5921055E0,1.1503682E-1,2.042674E-1,2.0964038E0,-1.3854714E-2,6.0177487E-3,3.7132803E-2,1.2170237E-1],"split_indices":[9,6,0,7,0,8,3,0,0,0,0],"split_type":[0,0,0,0,0,0,0,0,0,0,0],"sum_hessian":[1.8161516E4,1.6889037E4,1.2724791E3,1.6799436E4,8.960239E1,1.636329E4,4.361448E2,1.1961592E4,4.4016987E3,3.8720563E2,4.8939156E1],"tree_param":{"num_deleted":"0","num_feature":"17","num_nodes":"11","size_leaf_vector":"1"}},{"base_weights":[2.133293E-3,-6.9978915E-2,1.0372279E-1,6.706981E-1,-8.320314E-2,1.6341281E-1,5.1779145E-1,-8.861131E-2,1.366069E0,4.633668E-2,1.3109985E-1,-1.1070201E-3,-1.9489035E-2,1.4417116E-1,7.3434606E-2],"categories":[],"categories_nodes":[],"categories_segments":[],"categories_sizes":[],"default_left":[0,0,0,0,0,0,0,0,0,0,0,0,0,0,0],"id":26,"left_children":[1,3,-1,5,7,-1,9,11,13,-1,-1,-1,-1,-1,-1],"loss_changes":[1.3337328E3,1.6367377E2,0E0,4.2335358E1,1.2875955E2,0E0,1.0376617E1,1.347566E2,1.8599167E0,0E0,0E0,0E0,0E0,0E0,0E0],"parents":[2147483647,0,0,1,1,3,3,4,4,6,6,7,7,8,8],"right_children":[2,4,-1,6,8,-1,10,12,14,-1,-1,-1,-1,-1,-1],"split_conditions":[8.4822816E-1,-1.0185037E0,1.0372279E-1,-1.1932164E0,1.4274764E0,1.6341281E-1,9.230931E-1,-2.3229578E-1,4.2809076E0,4.633668E-2,1.3109985E-1,-1.1070201E-3,-1.9489035E-2,1.4417116E-1,7.3434606E-2],"split_indices":[9,1,0,1,1,0,7,1,4,0,0,0,0,0,0],"split_type":[0,0,0,0,0,0,0,0,0,0,0,0,0,0,0],"sum_hessian":[1.7866195E4,1.6703443E4,1.1627509E3,2.9212387E2,1.641132E4,3.8685883E1,2.5343799E2,1.6351242E4,6.0078297E1,2.3864772E2,1.4790267E1,9.454413E3,6.896829E3,5.2508694E1,7.569603E0],"tree_param":{"num_deleted":"0","num_feature":"17","num_nodes":"15","size_leaf_vector":"1"}},{"base_weights":[-2.6492993E-3,-6.759439E-2,1.0333743E-1,3.542601E-2,-1.4641184E-1,9.3715824E-2,-3.348592E-1,-2.5373185E-1,2.4525093E-1,1.0479742E-1,7.7138096E-3,-6.0329862E-2,-3.0144139E-3,-2.6631443E-2,9.773841E-2,1.2912837E-2,5.0004978E-2],"categories":[],"categories_nodes":[],"categories_segments":[],"categories_sizes":[],"default_left":[0,0,0,0,0,0,0,0,0,0,0,0,0,0,0,0,0],"id":27,"left_children":[1,3,-1,5,7,9,11,13,15,-1,-1,-1,-1,-1,-1,-1,-1],"loss_changes":[1.1962196E3,1.3584723E2,0E0,1.5656367E2,3.984715E2,9.905476E1,8.068247E1,1.1551547E2,6.0268303E1,0E0,0E0,0E0,0E0,0E0,0E0,0E0,0E0],"parents":[2147483647,0,0,1,1,3,3,4,4,5,5,6,6,7,7,8,8],"right_children":[2,4,-1,6,8,10,12,14,16,-1,-1,-1,-1,-1,-1,-1,-1],"split_conditions":[8.4822816E-1,-4.0700865E-1,1.0333743E-1,2.3792217E0,2.3792217E0,-1.1058601E0,-5.817215E-1,6.760495E0,2.0448636E-1,1.0479742E-1,7.7138096E-3,-6.0329862E-2,-3.0144139E-3,-2.6631443E-2,9.773841E-2,1.2912837E-2,5.0004978E-2],"split_indices":[9,1,0,13,13,1,1,2,1,0,0,0,0,0,0,0,0],"split_type":[0,0,0,0,0,0,0,0,0,0,0,0,0,0,0,0,0],"sum_hessian":[1.7776453E4,1.6728717E4,1.0477365E3,7.2512856E3,9.477432E3,6.2656953E3,9.855907E2,7.439325E3,2.0381067E3,1.0592891E2,6.159766E3,5.2346405E2,4.6212668E2,7.364837E3,7.448838E1,1.4010817E3,6.37025E2],"tree_param":{"num_deleted":"0","num_feature":"17","num_nodes":"17","size_leaf_vector":"1"}},{"base_weights":[1.1518122E-2,-4.6602905E-2,1.0299029E-1,-5.4727774E-2,8.879337E-1,1.12605885E-1,-6.1187185E-2,1.7647609E-1,1.1085525E0,-6.72014E-3,1.1147157E-1,-4.4822272E-2,1.3398467E-1,1.2296758E-1,2.4052927E-2],"categories":[],"categories_nodes":[],"categories_segments":[],"categories_sizes":[],"default_left":[0,0,0,0,0,0,0,0,0,0,0,0,0,0,0],"id":28,"left_children":[1,3,-1,5,7,-1,9,11,13,-1,-1,-1,-1,-1,-1],"loss_changes":[1.042131E3,1.2651944E2,0E0,1.2602154E2,2.234703E1,0E0,1.1623289E2,2.617041E1,1.1210114E1,0E0,0E0,0E0,0E0,0E0,0E0],"parents":[2147483647,0,0,1,1,3,3,4,4,6,6,7,7,8,8],"right_children":[2,4,-1,6,8,-1,10,12,14,-1,-1,-1,-1,-1,-1],"split_conditions":[8.4822816E-1,1.0780506E0,1.0299029E-1,-2.027595E-1,2.042674E-1,1.12605885E-1,1.198809E1,1.4274764E0,4.2809076E0,-6.72014E-3,1.1147157E-1,-4.4822272E-2,1.3398467E-1,1.2296758E-1,2.4052927E-2],"split_indices":[9,1,0,5,8,0,6,1,4,0,0,0,0,0,0],"split_type":[0,0,0,0,0,0,0,0,0,0,0,0,0,0,0],"sum_hessian":[1.7604855E4,1.6655264E4,9.495912E2,1.6512645E4,1.4261967E2,8.88968E1,1.6423748E4,3.418354E1,1.0843614E2,1.6341113E4,8.263459E1,2.2640774E1,1.1542768E1,9.479225E1,1.3643888E1],"tree_param":{"num_deleted":"0","num_feature":"17","num_nodes":"15","size_leaf_vector":"1"}},{"base_weights":[6.522032E-3,-4.689179E-2,1.0267663E-1,4.8984766E-2,-1.2079387E-1,9.523483E-2,-2.494349E-1,-2.1741305E-1,2.3192166E-1,9.67915E-2,8.118255E-3,-4.8470315E-2,1.2525512E-3,-2.2871993E-2,8.733844E-2,2.0012027E-2,1.0048733E-1],"categories":[],"categories_nodes":[],"categories_segments":[],"categories_sizes":[],"default_left":[0,0,0,0,0,0,0,0,0,0,0,0,0,0,0,0,0],"id":29,"left_children":[1,3,-1,5,7,9,11,13,15,-1,-1,-1,-1,-1,-1,-1,-1],"loss_changes":[9.506582E2,1.1746238E2,0E0,9.962483E1,3.1908557E2,7.655179E1,5.970361E1,9.084036E1,4.929225E1,0E0,0E0,0E0,0E0,0E0,0E0,0E0,0E0],"parents":[2147483647,0,0,1,1,3,3,4,4,5,5,6,6,7,7,8,8],"right_children":[2,4,-1,6,8,10,12,14,16,-1,-1,-1,-1,-1,-1,-1,-1],"split_conditions":[8.4822816E-1,-4.0700865E-1,1.0267663E-1,2.0272913E0,2.0272913E0,-1.1058601E0,-5.817215E-1,6.760495E0,9.906942E-1,9.67915E-2,8.118255E-3,-4.8470315E-2,1.2525512E-3,-2.2871993E-2,8.733844E-2,2.0012027E-2,1.0048733E-1],"split_indices":[9,1,0,5,5,1,1,2,1,0,0,0,0,0,0,0,0],"split_type":[0,0,0,0,0,0,0,0,0,0,0,0,0,0,0,0,0],"sum_hessian":[1.744294E4,1.6576072E4,8.6686884E2,7.215461E3,9.36061E3,6.247832E3,9.6762885E2,7.348126E3,2.0124846E3,9.793534E1,6.1498965E3,5.093385E2,4.582903E2,7.273521E3,7.460484E1,1.9341665E3,7.8318146E1],"tree_param":{"num_deleted":"0","num_feature":"17","num_nodes":"17","size_leaf_vector":"1"}},{"base_weights":[4.1729016E-3,-4.4269823E-2,1.02392636E-1,1.1117511E-1,-5.003605E-2,-5.5366214E-2,1.1112809E-1,-7.107942E-3,2.6373064E-2],"categories":[],"categories_nodes":[],"categories_segments":[],"categories_sizes":[],"default_left":[0,0,0,0,0,0,0,0,0],"id":30,"left_children":[1,3,-1,-1,5,7,-1,-1,-1],"loss_changes":[8.5480005E2,1.1017009E2,0E0,0E0,1.0181353E2,8.206814E1,0E0,0E0,0E0],"parents":[2147483647,0,0,1,1,4,4,5,5],"right_children":[2,4,-1,-1,6,8,-1,-1,-1],"split_conditions":[8.4822816E-1,-2.027595E-1,1.02392636E-1,1.1117511E-1,1.198809E1,5.6213355E-1,1.1112809E-1,-7.107942E-3,2.6373064E-2],"split_indices":[9,5,0,0,6,7,0,0,0],"split_type":[0,0,0,0,0,0,0,0,0],"sum_hessian":[1.7301855E4,1.6518129E4,7.837264E2,8.103142E1,1.6437098E4,1.6362947E4,7.4149666E1,1.5595747E4,7.672E2],"tree_param":{"num_deleted":"0","num_feature":"17","num_nodes":"9","size_leaf_vector":"1"}},{"base_weights":[5.857007E-3,-3.8038798E-2,1.0213386E-1,1.0978525E-1,-4.3114614E-2,-4.811247E-2,1.0802575E-1,9.102162E-2,-5.375524E-3],"categories":[],"categories_nodes":[],"categories_segments":[],"categories_sizes":[],"default_left":[0,0,0,0,0,0,0,0,0],"id":31,"left_children":[1,3,-1,-1,5,7,-1,-1,-1],"loss_changes":[7.66028E2,9.502399E1,0E0,0E0,9.213315E1,8.835036E1,0E0,0E0,0E0],"parents":[2147483647,0,0,1,1,4,4,5,5],"right_children":[2,4,-1,-1,6,8,-1,-1,-1],"split_conditions":[8.4822816E-1,-2.027595E-1,1.0213386E-1,1.0978525E-1,1.198809E1,-1.1058601E0,1.0802575E-1,9.102162E-2,-5.375524E-3],"split_indices":[9,5,0,0,6,1,0,0,0],"split_type":[0,0,0,0,0,0,0,0,0],"sum_hessian":[1.7183129E4,1.647206E4,7.110685E2,7.232141E1,1.639974E4,1.6328054E4,7.168597E1,9.464062E1,1.6233413E4],"tree_param":{"num_deleted":"0","num_feature":"17","num_nodes":"9","size_leaf_vector":"1"}},{"base_weights":[5.442968E-3,-3.465655E-2,1.0189855E-1,1.0863322E-1,-3.935505E-2,-4.4845108E-2,9.081503E-1,1.4294122E-3,-1.3021122E-2,5.8779236E-2,1.2314522E-1],"categories":[],"categories_nodes":[],"categories_segments":[],"categories_sizes":[],"default_left":[0,0,0,0,0,0,0,0,0,0,0],"id":32,"left_children":[1,3,-1,-1,5,7,9,-1,-1,-1,-1],"loss_changes":[6.912985E2,8.622095E1,0E0,0E0,8.48034E1,8.179628E1,9.003494E0,0E0,0E0,0E0,0E0],"parents":[2147483647,0,0,1,1,4,4,5,5,6,6],"right_children":[2,4,-1,-1,6,8,10,-1,-1,-1,-1],"split_conditions":[8.4822816E-1,-2.027595E-1,1.0189855E-1,1.0863322E-1,1.2527635E0,-2.3229578E-1,1.5148327E0,1.4294122E-3,-1.3021122E-2,5.8779236E-2,1.2314522E-1],"split_indices":[9,5,0,0,1,1,1,0,0,0,0],"split_type":[0,0,0,0,0,0,0,0,0,0,0],"sum_hessian":[1.7007355E4,1.6361019E4,6.463371E2,6.732829E1,1.629369E4,1.6200771E4,9.2918205E1,9.571051E3,6.629721E3,4.808709E1,4.4831116E1],"tree_param":{"num_deleted":"0","num_feature":"17","num_nodes":"11","size_leaf_vector":"1"}},{"base_weights":[2.732744E-3,-3.365294E-2,1.0168363E-1,-7.7793054E-2,8.48673E-2,1.0717124E-1,-8.349547E-2,5.000173E-2,3.9861155E-1,-8.752239E-3,1.0094154E-1,3.1175443E-3,3.6907706E-2,3.515634E-2,8.0263816E-2],"categories":[],"categories_nodes":[],"categories_segments":[],"categories_sizes":[],"default_left":[0,0,0,0,0,0,0,0,0,0,0,0,0,0,0],"id":33,"left_children":[1,3,-1,5,7,-1,9,11,13,-1,-1,-1,-1,-1,-1],"loss_changes":[6.253285E2,8.559482E1,0E0,7.823198E1,4.8549065E1,0E0,5.2299232E1,2.3999195E1,8.156136E0,0E0,0E0,0E0,0E0,0E0,0E0],"parents":[2147483647,0,0,1,1,3,3,4,4,6,6,7,7,8,8],"right_children":[2,4,-1,6,8,-1,10,12,14,-1,-1,-1,-1,-1,-1],"split_conditions":[8.4822816E-1,2.042674E-1,1.0168363E-1,-2.027595E-1,9.8029506E-1,1.0717124E-1,1.198809E1,1.4526036E-1,1.4526036E-1,-8.752239E-3,1.0094154E-1,3.1175443E-3,3.6907706E-2,3.515634E-2,8.0263816E-2],"split_indices":[9,8,0,5,8,0,6,3,3,0,0,0,0,0,0],"split_type":[0,0,0,0,0,0,0,0,0,0,0,0,0,0,0],"sum_hessian":[1.6945172E4,1.6359177E4,5.859948E2,1.1920141E4,4.439036E3,5.7918163E1,1.1862223E4,3.9961177E3,4.4291867E2,1.1819592E4,4.2630398E1,3.7745093E3,2.216083E2,3.9839633E2,4.4522343E1],"tree_param":{"num_deleted":"0","num_feature":"17","num_nodes":"15","size_leaf_vector":"1"}},{"base_weights":[7.7479216E-3,-2.5182746E-2,1.0148694E-1,-3.0915989E-2,8.5770327E-1,-7.4804865E-2,8.620454E-2,5.014377E-1,1.1827997E-1,1.0631104E-1,-8.01694E-3,6.0533043E-3,5.1128246E-2,9.701022E-2,-2.7772034E-5],"categories":[],"categories_nodes":[],"categories_segments":[],"categories_sizes":[],"default_left":[0,0,0,0,0,0,0,0,0,0,0,0,0,0,0],"id":34,"left_children":[1,3,-1,5,7,9,11,13,-1,-1,-1,-1,-1,-1,-1],"loss_changes":[5.588638E2,8.2622955E1,0E0,8.3347435E1,1.1604378E1,7.208225E1,4.8201557E1,1.222357E1,0E0,0E0,0E0,0E0,0E0,0E0,0E0],"parents":[2147483647,0,0,1,1,3,3,4,4,5,5,6,6,7,7],"right_children":[2,4,-1,6,8,10,12,14,-1,-1,-1,-1,-1,-1,-1],"split_conditions":[8.4822816E-1,3.1012163E0,1.0148694E-1,2.042674E-1,3.716794E0,-2.027595E-1,2.7198904E0,3.333768E0,1.1827997E-1,1.0631104E-1,-8.01694E-3,6.0533043E-3,5.1128246E-2,9.701022E-2,-2.7772034E-5],"split_indices":[9,7,0,8,7,5,4,7,0,0,0,0,0,0,0],"split_type":[0,0,0,0,0,0,0,0,0,0,0,0,0,0,0],"sum_hessian":[1.6849146E4,1.63166045E4,5.3254224E2,1.621229E4,1.0431359E2,1.1793313E4,4.4189775E3,5.0983925E1,5.3329666E1,5.4411766E1,1.1738901E4,4.168381E3,2.5059639E2,2.5877533E1,2.5106392E1],"tree_param":{"num_deleted":"0","num_feature":"17","num_nodes":"15","size_leaf_vector":"1"}},{"base_weights":[9.843468E-3,-1.9831099E-2,1.0130491E-1,-2.593634E-2,7.2870034E-1,-3.0145878E-2,1.0466878E0,5.916251E-1,1.1056668E0,-3.330033E-3,1.2012817E-1,1.06105976E-1,2.4440141E-2,5.4417443E-2,1.10716105E-1,1.3418455E-1,4.5965603E-6],"categories":[],"categories_nodes":[],"categories_segments":[],"categories_sizes":[],"default_left":[0,0,0,0,0,0,0,0,0,0,0,0,0,0,0,0,0],"id":35,"left_children":[1,3,-1,5,7,9,11,13,15,-1,-1,-1,-1,-1,-1,-1,-1],"loss_changes":[4.9928595E2,7.446408E1,0E0,7.299473E1,6.1576996E0,6.2568695E1,4.6936798E-1,1.8149986E0,8.878704E0,0E0,0E0,0E0,0E0,0E0,0E0,0E0,0E0],"parents":[2147483647,0,0,1,1,3,3,4,4,5,5,6,6,7,7,8,8],"right_children":[2,4,-1,6,8,10,12,14,16,-1,-1,-1,-1,-1,-1,-1,-1],"split_conditions":[-1.4561805E-1,6.760495E0,1.0130491E-1,1.198809E1,1.1588733E0,2.0964038E0,1.849016E0,1.4526036E-1,1.965678E1,-3.330033E-3,1.2012817E-1,1.06105976E-1,2.4440141E-2,5.4417443E-2,1.10716105E-1,1.3418455E-1,4.5965603E-6],"split_indices":[16,2,0,6,4,3,7,3,14,0,0,0,0,0,0,0,0],"split_type":[0,0,0,0,0,0,0,0,0,0,0,0,0,0,0,0,0],"sum_hessian":[1.6769945E4,1.6289098E4,4.8084708E2,1.6158271E4,1.3082626E2,1.6096073E4,6.2197502E1,9.782417E1,3.3002087E1,1.6055917E4,4.0156197E1,6.0786057E1,1.4114473E0,9.146148E1,6.362694E0,2.7017128E1,5.9849596E0],"tree_param":{"num_deleted":"0","num_feature":"17","num_nodes":"17","size_leaf_vector":"1"}},{"base_weights":[9.103243E-4,-2.6326109E-2,1.0113835E-1,-3.0319605E-2,1.0464853E-1,-3.61385E-2,7.0619285E-1,-5.1454264E-3,2.0801334E-2,7.495218E-2,-1.7493844E-2],"categories":[],"categories_nodes":[],"categories_segments":[],"categories_sizes":[],"default_left":[0,0,0,0,0,0,0,0,0,0,0],"id":36,"left_children":[1,3,-1,5,-1,7,9,-1,-1,-1,-1],"loss_changes":[4.594217E2,6.967237E1,0E0,6.943509E1,0E0,6.0101124E1,4.979828E0,0E0,0E0,0E0,0E0],"parents":[2147483647,0,0,1,1,3,3,5,5,6,6],"right_children":[2,4,-1,6,-1,8,10,-1,-1,-1,-1],"split_conditions":[-1.4561805E-1,1.198809E1,1.0113835E-1,6.760495E0,1.0464853E-1,1.4526036E-1,1.965678E1,-5.1454264E-3,2.0801334E-2,7.495218E-2,-1.7493844E-2],"split_indices":[16,6,0,2,0,3,14,0,0,0,0],"split_type":[0,0,0,0,0,0,0,0,0,0,0],"sum_hessian":[1.6691111E4,1.6253973E4,4.3713788E2,1.6194661E4,5.93122E1,1.6068659E4,1.2600124E2,1.5120907E4,9.4775244E2,1.20238E2,5.763243E0],"tree_param":{"num_deleted":"0","num_feature":"17","num_nodes":"11","size_leaf_vector":"1"}},{"base_weights":[4.173515E-3,-2.0507958E-2,1.0098336E-1,5.379906E-1,-3.0526996E-2,1.4107476E-1,4.137155E-1,-3.4457553E-2,1.0631814E0,3.663997E-2,1.2103739E-1,4.902905E-4,-1.3663453E-2,1.1596465E-1,6.2440366E-2],"categories":[],"categories_nodes":[],"categories_segments":[],"categories_sizes":[],"default_left":[0,0,0,0,0,0,0,0,0,0,0,0,0,0,0],"id":37,"left_children":[1,3,-1,5,7,-1,9,11,13,-1,-1,-1,-1,-1,-1],"loss_changes":[4.1200827E2,9.067444E1,0E0,3.0390488E1,6.84621E1,0E0,9.032757E0,6.3789375E1,1.6897659E0,0E0,0E0,0E0,0E0,0E0,0E0],"parents":[2147483647,0,0,1,1,3,3,4,4,6,6,7,7,8,8],"right_children":[2,4,-1,6,8,-1,10,12,14,-1,-1,-1,-1,-1,-1],"split_conditions":[8.4822816E-1,-1.0185037E0,1.0098336E-1,-1.1932164E0,1.4274764E0,1.4107476E-1,9.230931E-1,-5.7582922E-2,1.7563227E0,3.663997E-2,1.2103739E-1,4.902905E-4,-1.3663453E-2,1.1596465E-1,6.2440366E-2],"split_indices":[9,1,0,1,1,0,7,1,8,0,0,0,0,0,0],"split_type":[0,0,0,0,0,0,0,0,0,0,0,0,0,0,0],"sum_hessian":[1.6597232E4,1.6200607E4,3.9662482E2,2.8457608E2,1.5916031E4,3.4180706E1,2.5039539E2,1.5860003E4,5.602901E1,2.377355E2,1.2659873E1,1.1450146E4,4.409856E3,4.4584274E1,1.14447365E1],"tree_param":{"num_deleted":"0","num_feature":"17","num_nodes":"15","size_leaf_vector":"1"}},{"base_weights":[1.8462823E-3,-2.0506648E-2,1.0083772E-1,4.6092796E-1,-2.8956037E-2,1.3509767E-1,3.404266E-1,-6.7765325E-2,7.222176E-2,2.8977623E-2,1.1757696E-1,-2.1811252E-4,-2.7783815E-2,3.3408056E-3,5.8195382E-2],"categories":[],"categories_nodes":[],"categories_segments":[],"categories_sizes":[],"default_left":[0,0,0,0,0,0,0,0,0,0,0,0,0,0,0],"id":38,"left_children":[1,3,-1,5,7,-1,9,11,13,-1,-1,-1,-1,-1,-1],"loss_changes":[3.7209894E2,6.5827965E1,0E0,2.9475803E1,6.2443108E1,0E0,1.0117138E1,1.583484E2,8.720777E1,0E0,0E0,0E0,0E0,0E0,0E0],"parents":[2147483647,0,0,1,1,3,3,4,4,6,6,7,7,8,8],"right_children":[2,4,-1,6,8,-1,10,12,14,-1,-1,-1,-1,-1,-1],"split_conditions":[-1.4561805E-1,-1.0185037E0,1.0083772E-1,-1.1932164E0,2.042674E-1,1.3509767E-1,9.230931E-1,-5.7582922E-2,6.412685E-1,2.8977623E-2,1.1757696E-1,-2.1811252E-4,-2.7783815E-2,3.3408056E-3,5.8195382E-2],"split_indices":[16,1,0,1,8,0,7,1,1,0,0,0,0,0,0],"split_type":[0,0,0,0,0,0,0,0,0,0,0,0,0,0,0],"sum_hessian":[1.653661E4,1.6178302E4,3.583064E2,2.7811536E2,1.5900187E4,3.194578E1,2.4616959E2,1.1492341E4,4.407846E3,2.3336649E2,1.2803099E1,8.758857E3,2.733483E3,4.096948E3,3.1089783E2],"tree_param":{"num_deleted":"0","num_feature":"17","num_nodes":"15","size_leaf_vector":"1"}},{"base_weights":[3.4534294E-4,-1.999295E-2,1.0070173E-1,1.3041735E-1,-2.2695838E-2,-2.6113763E-2,1.024549E0,-3.157825E-3,6.322697E-2,1.0419833E-1,1.538326E-2],"categories":[],"categories_nodes":[],"categories_segments":[],"categories_sizes":[],"default_left":[0,0,0,0,0,0,0,0,0,0,0],"id":39,"left_children":[1,3,-1,-1,5,7,9,-1,-1,-1,-1],"loss_changes":[3.369723E2,5.7769505E1,0E0,0E0,5.7657867E1,5.776118E1,6.351967E-1,0E0,0E0,0E0,0E0],"parents":[2147483647,0,0,1,1,4,4,5,5,6,6],"right_children":[2,4,-1,-1,6,8,10,-1,-1,-1,-1],"split_conditions":[8.4822816E-1,-1.1932164E0,1.0070173E-1,1.3041735E-1,1.198809E1,6.760495E0,1.849016E0,-3.157825E-3,6.322697E-2,1.0419833E-1,1.538326E-2],"split_indices":[9,1,0,0,6,2,7,0,0,0,0],"split_type":[0,0,0,0,0,0,0,0,0,0,0],"sum_hessian":[1.6456572E4,1.6131637E4,3.2493533E2,3.1879965E1,1.6099757E4,1.60483545E4,5.1402443E1,1.5917196E4,1.3115839E2,5.0200584E1,1.2018577E0],"tree_param":{"num_deleted":"0","num_feature":"17","num_nodes":"11","size_leaf_vector":"1"}},{"base_weights":[-1.2847146E-3,-1.9684872E-2,1.0057231E-1,-3.0432219E-2,3.6011752E-1,2.9406112E-2,-1.221414E-1,2.7211788E-1,7.6125056E-1,1.1063524E-3,2.9704357E-2,-2.260486E-2,2.3856964E-2,2.5176827E-2,1.0956533E-1,9.389839E-2,3.07125E-4],"categories":[],"categories_nodes":[],"categories_segments":[],"categories_sizes":[],"default_left":[0,0,0,0,0,0,0,0,0,0,0,0,0,0,0,0,0],"id":40,"left_children":[1,3,-1,5,7,9,11,13,15,-1,-1,-1,-1,-1,-1,-1,-1],"loss_changes":[3.0441797E2,6.586905E1,0E0,8.6112755E1,1.5468323E1,4.6615974E1,2.3227756E2,5.853342E0,1.0687958E1,0E0,0E0,0E0,0E0,0E0,0E0,0E0,0E0],"parents":[2147483647,0,0,1,1,3,3,4,4,5,5,6,6,7,7,8,8],"right_children":[2,4,-1,6,8,10,12,14,16,-1,-1,-1,-1,-1,-1,-1,-1],"split_conditions":[8.4822816E-1,9.8029506E-1,1.0057231E-1,-2.3229578E-1,9.033378E-1,1.1588733E0,2.3792217E0,6.760495E0,4.2809076E0,1.1063524E-3,2.9704357E-2,-2.260486E-2,2.3856964E-2,2.5176827E-2,1.0956533E-1,9.389839E-2,3.07125E-4],"split_indices":[9,8,0,1,1,4,13,2,4,0,0,0,0,0,0,0,0],"split_type":[0,0,0,0,0,0,0,0,0,0,0,0,0,0,0,0,0],"sum_hessian":[1.6427111E4,1.6133303E4,2.9380902E2,1.5690232E4,4.4306985E2,9.495377E3,6.194856E3,3.6473376E2,7.833609E1,8.887323E3,6.0805316E2,4.8097285E3,1.3851276E3,3.5721274E2,7.5210304E0,6.326658E1,1.5069508E1],"tree_param":{"num_deleted":"0","num_feature":"17","num_nodes":"17","size_leaf_vector":"1"}},{"base_weights":[7.9556904E-4,-1.5853768E-2,1.0044994E-1,1.05595104E-1,-1.9363644E-2,-2.2411568E-2,9.8794065E-2,-2.4991124E-3,1.1009937E-1],"categories":[],"categories_nodes":[],"categories_segments":[],"categories_sizes":[],"default_left":[0,0,0,0,0,0,0,0,0],"id":41,"left_children":[1,3,-1,-1,5,7,-1,-1,-1],"loss_changes":[2.7375928E2,6.064243E1,0E0,0E0,4.933887E1,4.6438946E1,0E0,0E0,0E0],"parents":[2147483647,0,0,1,1,4,4,5,5],"right_children":[2,4,-1,-1,6,8,-1,-1,-1],"split_conditions":[-1.4561805E-1,-2.027595E-1,1.0044994E-1,1.05595104E-1,1.198809E1,2.0964038E0,9.8794065E-2,-2.4991124E-3,1.1009937E-1],"split_indices":[16,5,0,0,6,3,0,0,0],"split_type":[0,0,0,0,0,0,0,0,0],"sum_hessian":[1.6380027E4,1.6113719E4,2.6630853E2,5.161718E1,1.6062102E4,1.6014622E4,4.7479664E1,1.5978909E4,3.57129E1],"tree_param":{"num_deleted":"0","num_feature":"17","num_nodes":"9","size_leaf_vector":"1"}},{"base_weights":[5.7070768E-3,-9.2902435E-3,1.00332E-1,-1.2767219E-2,9.6547943E-1,7.447421E-1,-1.6925514E-2,7.969373E-1,1.2085233E-1,1.2580064E-1,5.0009944E-2,1.5637878E-3,-1.03576565E-2,5.4078054E-2,8.6118475E-2],"categories":[],"categories_nodes":[],"categories_segments":[],"categories_sizes":[],"default_left":[0,0,0,0,0,0,0,0,0,0,0,0,0,0,0],"id":42,"left_children":[1,3,-1,5,7,9,11,13,-1,-1,-1,-1,-1,-1,-1],"loss_changes":[2.4449689E2,5.4579456E1,0E0,5.0549805E1,1.3815079E0,1.0372101E1,4.5027313E1,1.3885689E-1,0E0,0E0,0E0,0E0,0E0,0E0,0E0],"parents":[2147483647,0,0,1,1,3,3,4,4,5,5,6,6,7,7],"right_children":[2,4,-1,6,8,10,12,14,-1,-1,-1,-1,-1,-1,-1],"split_conditions":[8.4822816E-1,3.57689E0,1.00332E-1,-1.1058601E0,4.1139407E0,-1.1932164E0,-5.7582922E-2,3.716794E0,1.2085233E-1,1.2580064E-1,5.0009944E-2,1.5637878E-3,-1.03576565E-2,5.4078054E-2,8.6118475E-2],"split_indices":[9,7,0,1,7,1,1,7,0,0,0,0,0,0,0],"split_type":[0,0,0,0,0,0,0,0,0,0,0,0,0,0,0],"sum_hessian":[1.6340092E4,1.60990625E4,2.4102985E2,1.6042825E4,5.6237385E1,8.661286E1,1.5956212E4,3.5735252E1,2.050213E1,2.6620472E1,5.9992386E1,1.1598373E4,4.3578394E3,9.053957E0,2.6681295E1],"tree_param":{"num_deleted":"0","num_feature":"17","num_nodes":"15","size_leaf_vector":"1"}},{"base_weights":[3.8464493E-3,-9.873659E-3,1.0021955E-1,1.1053093E-1,-3.93975E-2,1.7057887E-1,-4.9057746E-1,-8.414705E-2,1.2893584E-1,1.2214916E-1,1.605607E-2,1.3768087E-1,-5.6585845E-2,-2.7277078E-3,-2.0780815E-2,-1.25363935E-2,2.53129E-2],"categories":[],"categories_nodes":[],"categories_segments":[],"categories_sizes":[],"default_left":[0,0,0,0,0,0,0,0,0,0,0,0,0,0,0,0,0],"id":43,"left_children":[1,3,-1,5,7,9,11,13,15,-1,-1,-1,-1,-1,-1,-1,-1],"loss_changes":[2.2254025E2,5.697672E1,0E0,1.1401007E2,9.697052E1,3.0023506E1,4.1113655E1,7.150912E1,8.541631E1,0E0,0E0,0E0,0E0,0E0,0E0,0E0,0E0],"parents":[2147483647,0,0,1,1,3,3,4,4,5,5,6,6,7,7,8,8],"right_children":[2,4,-1,6,8,10,12,14,16,-1,-1,-1,-1,-1,-1,-1,-1],"split_conditions":[8.4822816E-1,-6.6907793E-1,1.0021955E-1,2.0272913E0,2.0272913E0,-1.1932164E0,-8.4379077E-1,-5.7582922E-2,-3.196522E-1,1.2214916E-1,1.605607E-2,1.3768087E-1,-5.6585845E-2,-2.7277078E-3,-2.0780815E-2,-1.25363935E-2,2.53129E-2],"split_indices":[9,1,0,5,5,1,1,1,1,0,0,0,0,0,0,0,0],"split_type":[0,0,0,0,0,0,0,0,0,0,0,0,0,0,0,0,0],"sum_hessian":[1.6245106E4,1.6025856E4,2.1924997E2,3.1552644E3,1.2870592E4,2.8693462E3,2.8591818E2,1.0168033E4,2.7025586E3,2.5952787E1,2.8433936E3,1.0409749E1,2.7550842E2,6.9657876E3,3.2022456E3,8.8677515E2,1.8157834E3],"tree_param":{"num_deleted":"0","num_feature":"17","num_nodes":"17","size_leaf_vector":"1"}},{"base_weights":[4.374855E-3,-7.984647E-3,1.0010534E-1,1.0452787E-1,-1.1172864E-2,-1.4508906E-2,9.602497E-1,-1.7400716E-3,1.0153967E-1,1.0530787E-1,1.5491146E-2],"categories":[],"categories_nodes":[],"categories_segments":[],"categories_sizes":[],"default_left":[0,0,0,0,0,0,0,0,0,0,0],"id":44,"left_children":[1,3,-1,-1,5,7,9,-1,-1,-1,-1],"loss_changes":[1.9961572E2,5.376194E1,0E0,0E0,5.173289E1,4.7388947E1,3.921238E0,0E0,0E0,0E0,0E0],"parents":[2147483647,0,0,1,1,4,4,5,5,6,6],"right_children":[2,4,-1,-1,6,8,10,-1,-1,-1,-1],"split_conditions":[8.4822816E-1,-2.027595E-1,1.0010534E-1,1.0452787E-1,1.4274764E0,1.198809E1,4.2809076E0,-1.7400716E-3,1.0153967E-1,1.0530787E-1,1.5491146E-2],"split_indices":[9,5,0,0,1,6,4,0,0,0,0],"split_type":[0,0,0,0,0,0,0,0,0,0,0],"sum_hessian":[1.6202964E4,1.6005477E4,1.9748698E2,4.731579E1,1.5958161E4,1.5904527E4,5.363398E1,1.5860975E4,4.355196E1,4.7814877E1,5.819102E0],"tree_param":{"num_deleted":"0","num_feature":"17","num_nodes":"11","size_leaf_vector":"1"}},{"base_weights":[-3.6821938E-3,-1.49261495E-2,9.999301E-2,3.955029E-1,-2.2012612E-2,1.1885053E-1,3.1409353E-1,-2.8654467E-2,3.9474434E-1,2.7089933E-2,1.1260054E-1,-3.3247413E-3,5.6444723E-2,9.411259E-2,2.3201382E-2],"categories":[],"categories_nodes":[],"categories_segments":[],"categories_sizes":[],"default_left":[0,0,0,0,0,0,0,0,0,0,0,0,0,0,0],"id":45,"left_children":[1,3,-1,5,7,-1,9,11,13,-1,-1,-1,-1,-1,-1],"loss_changes":[1.8255867E2,4.6539204E1,0E0,1.7159855E1,4.3545856E1,0E0,8.380455E0,4.2192436E1,2.1724117E1,0E0,0E0,0E0,0E0,0E0,0E0],"parents":[2147483647,0,0,1,1,3,3,4,4,6,6,7,7,8,8],"right_children":[2,4,-1,6,8,-1,10,12,14,-1,-1,-1,-1,-1,-1],"split_conditions":[8.4822816E-1,-1.0185037E0,9.999301E-2,-1.1932164E0,2.7198904E0,1.1885053E-1,9.230931E-1,2.842826E0,2.9773504E-2,2.7089933E-2,1.1260054E-1,-3.3247413E-3,5.6444723E-2,9.411259E-2,2.3201382E-2],"split_indices":[9,1,0,1,4,0,7,7,1,0,0,0,0,0,0],"split_type":[0,0,0,0,0,0,0,0,0,0,0,0,0,0,0],"sum_hessian":[1.6175399E4,1.5997161E4,1.7823883E2,2.7058844E2,1.5726572E4,2.3926188E1,2.4666225E2,1.5480786E4,2.4578606E2,2.3546881E2,1.119343E1,1.5362762E4,1.1802437E2,5.5306484E1,1.9047958E2],"tree_param":{"num_deleted":"0","num_feature":"17","num_nodes":"15","size_leaf_vector":"1"}},{"base_weights":[-2.829082E-3,-1.3092009E-2,9.98863E-2,1.03830196E-1,-1.6048353E-2,-2.4351707E-2,3.105835E-1,-2.6861436E-3,9.709152E-2,7.1963124E-2,1.2402129E-2],"categories":[],"categories_nodes":[],"categories_segments":[],"categories_sizes":[],"default_left":[0,0,0,0,0,0,0,0,0,0,0],"id":46,"left_children":[1,3,-1,-1,5,7,9,-1,-1,-1,-1],"loss_changes":[1.6567998E2,4.9601696E1,0E0,0E0,4.3154465E1,3.8781105E1,3.0013626E1,0E0,0E0,0E0,0E0],"parents":[2147483647,0,0,1,1,4,4,5,5,6,6],"right_children":[2,4,-1,-1,6,8,10,-1,-1,-1,-1],"split_conditions":[-1.4561805E-1,-2.027595E-1,9.98863E-2,1.03830196E-1,1.5921055E0,1.198809E1,-7.564343E-1,-2.6861436E-3,9.709152E-2,7.1963124E-2,1.2402129E-2],"split_indices":[16,5,0,0,7,6,1,0,0,0,0],"split_type":[0,0,0,0,0,0,0,0,0,0,0],"sum_hessian":[1.6113997E4,1.5951551E4,1.6244614E2,4.3745354E1,1.5907806E4,1.5514339E4,3.9346664E2,1.5476286E4,3.8053017E1,1.223501E2,2.7111655E2],"tree_param":{"num_deleted":"0","num_feature":"17","num_nodes":"11","size_leaf_vector":"1"}},{"base_weights":[3.8291211E-3,-5.4307356E-3,9.977674E-2,1.0280917E-1,-8.016286E-3,-1.4190083E-2,3.8348296E-1,-1.6582366E-3,9.333535E-2,2.9363586E-2,9.362483E-2],"categories":[],"categories_nodes":[],"categories_segments":[],"categories_sizes":[],"default_left":[0,0,0,0,0,0,0,0,0,0,0],"id":47,"left_children":[1,3,-1,-1,5,7,9,-1,-1,-1,-1],"loss_changes":[1.4798975E2,4.258032E1,0E0,0E0,3.8418343E1,3.5483494E1,1.1980495E1,0E0,0E0,0E0,0E0],"parents":[2147483647,0,0,1,1,4,4,5,5,6,6],"right_children":[2,4,-1,-1,6,8,10,-1,-1,-1,-1],"split_conditions":[8.4822816E-1,-2.027595E-1,9.977674E-2,1.0280917E-1,2.7198904E0,3.716794E0,2.0272913E0,-1.6582366E-3,9.333535E-2,2.9363586E-2,9.362483E-2],"split_indices":[9,5,0,0,4,7,5,0,0,0,0],"split_type":[0,0,0,0,0,0,0,0,0,0,0],"sum_hessian":[1.6077741E4,1.5930323E4,1.474176E2,3.8763493E1,1.589156E4,1.5645795E4,2.4576459E2,1.5607373E4,3.8421738E1,2.1272003E2,3.304455E1],"tree_param":{"num_deleted":"0","num_feature":"17","num_nodes":"11","size_leaf_vector":"1"}},{"base_weights":[-7.8977905E-3,-1.6364668E-2,9.966052E-2,-2.1165006E-2,5.659668E-1,3.6406994E-2,-6.719016E-2,3.214941E-2,7.46698E-1,7.718903E-3,-2.256954E-2,-1.3134614E-2,1.5490973E-2,-3.306517E-2,5.9461195E-2,8.493669E-2,-5.124225E-3],"categories":[],"categories_nodes":[],"categories_segments":[],"categories_sizes":[],"default_left":[0,0,0,0,0,0,0,0,0,0,0,0,0,0,0,0,0],"id":48,"left_children":[1,3,-1,5,7,9,11,13,15,-1,-1,-1,-1,-1,-1,-1,-1],"loss_changes":[1.3623462E2,4.441217E1,0E0,4.1748024E1,1.2508137E1,7.483978E1,1.24778854E2,7.114302E0,7.9898834E0,0E0,0E0,0E0,0E0,0E0,0E0,0E0,0E0],"parents":[2147483647,0,0,1,1,3,3,4,4,5,5,6,6,7,7,8,8],"right_children":[2,4,-1,6,8,10,12,14,16,-1,-1,-1,-1,-1,-1,-1,-1],"split_conditions":[8.4822816E-1,1.0780506E0,9.966052E-2,-4.0700865E-1,2.042674E-1,2.3792217E0,2.3792217E0,1.4274764E0,4.2809076E0,7.718903E-3,-2.256954E-2,-1.3134614E-2,1.5490973E-2,-3.306517E-2,5.9461195E-2,8.493669E-2,-5.124225E-3],"split_indices":[9,1,0,1,8,13,13,1,4,0,0,0,0,0,0,0,0],"split_type":[0,0,0,0,0,0,0,0,0,0,0,0,0,0,0,0,0],"sum_hessian":[1.6015256E4,1.5882368E4,1.3288751E2,1.5753472E4,1.2889711E2,6.998895E3,8.754576E3,3.289995E1,9.599716E1,6.0571357E3,9.4175946E2,6.792808E3,1.961768E3,2.0250227E1,1.2649721E1,8.4996445E1,1.1000716E1],"tree_param":{"num_deleted":"0","num_feature":"17","num_nodes":"17","size_leaf_vector":"1"}},{"base_weights":[6.4438577E-3,-1.0941401E-3,9.9544205E-2,1.02080844E-1,-3.432342E-3,-1.5246534E-2,1.853301E-1,-3.1275388E-3,1.2101063E-2,1.0661744E-2,4.9703274E-2],"categories":[],"categories_nodes":[],"categories_segments":[],"categories_sizes":[],"default_left":[0,0,0,0,0,0,0,0,0,0,0],"id":49,"left_children":[1,3,-1,-1,5,7,9,-1,-1,-1,-1],"loss_changes":[1.19567085E2,3.8037975E1,0E0,0E0,3.5422142E1,3.265087E1,2.2901337E1,0E0,0E0,0E0,0E0],"parents":[2147483647,0,0,1,1,4,4,5,5,6,6],"right_children":[2,4,-1,-1,6,8,10,-1,-1,-1,-1],"split_conditions":[8.4822816E-1,-2.027595E-1,9.9544205E-2,1.02080844E-1,-2.928474E-2,1.1588733E0,2.0272913E0,-3.1275388E-3,1.2101063E-2,1.0661744E-2,4.9703274E-2],"split_indices":[9,5,0,0,7,4,5,0,0,0,0],"split_type":[0,0,0,0,0,0,0,0,0,0,0],"sum_hessian":[1.6037221E4,1.5916903E4,1.2031739E2,3.534175E1,1.5881562E4,1.4946985E4,9.3457697E2,1.3374431E4,1.5725544E3,7.472259E2,1.8735106E2],"tree_param":{"num_deleted":"0","num_feature":"17","num_nodes":"11","size_leaf_vector":"1"}},{"base_weights":[5.067274E-4,-6.3763056E-3,9.942194E-2,-9.086541E-3,8.5778195E-1,3.2502316E-2,-7.108238E-2,9.5627296E-1,2.3479415E-1,1.557108E-3,2.5830893E-2,-1.5248432E-2,1.809741E-2,7.118507E-2,1.23428285E-1,-5.919886E-4,4.5003608E-2],"categories":[],"categories_nodes":[],"categories_segments":[],"categories_sizes":[],"default_left":[0,0,0,0,0,0,0,0,0,0,0,0,0,0,0,0,0],"id":50,"left_children":[1,3,-1,5,7,9,11,13,15,-1,-1,-1,-1,-1,-1,-1,-1],"loss_changes":[1.090955E2,3.710751E1,0E0,4.071944E1,2.8149033E0,3.6133755E1,1.3012631E2,2.0057755E0,4.2169937E-1,0E0,0E0,0E0,0E0,0E0,0E0,0E0,0E0],"parents":[2147483647,0,0,1,1,3,3,4,4,5,5,6,6,7,7,8,8],"right_children":[2,4,-1,6,8,10,12,14,16,-1,-1,-1,-1,-1,-1,-1,-1],"split_conditions":[-1.4561805E-1,1.4274764E0,9.942194E-2,-2.3229578E-1,4.2809076E0,1.1588733E0,2.0272913E0,1.6895456E0,1.7769021E0,1.557108E-3,2.5830893E-2,-1.5248432E-2,1.809741E-2,7.118507E-2,1.23428285E-1,-5.919886E-4,4.5003608E-2],"split_indices":[16,1,0,1,4,4,5,1,1,0,0,0,0,0,0,0,0],"split_type":[0,0,0,0,0,0,0,0,0,0,0,0,0,0,0,0,0],"sum_hessian":[1.5948272E4,1.5839552E4,1.0872038E2,1.5791017E4,4.8535435E1,9.451269E3,6.3397476E3,4.1447784E1,7.0876493E0,8.793026E3,6.5824225E2,4.792424E3,1.5473237E3,2.395096E1,1.7496826E1,3.8049319E0,3.2827175E0],"tree_param":{"num_deleted":"0","num_feature":"17","num_nodes":"17","size_leaf_vector":"1"}},{"base_weights":[7.377871E-3,1.1564833E-3,9.929957E-2,-3.1773685E-3,5.3606474E-1,5.2375644E-2,-4.785247E-2,-1.3860631E-1,8.509762E-1,8.360881E-3,-1.49498945E-2,-1.1365081E-2,1.7322902E-2,1.3220991E-2,-2.0579794E-1,6.1230954E-2,1.1036533E-1],"categories":[],"categories_nodes":[],"categories_segments":[],"categories_sizes":[],"default_left":[0,0,0,0,0,0,0,0,0,0,0,0,0,0,0,0,0],"id":51,"left_children":[1,3,-1,5,7,9,11,13,15,-1,-1,-1,-1,-1,-1,-1,-1],"loss_changes":[9.756916E1,3.6659813E1,0E0,3.893506E1,2.7120678E1,4.4102795E1,1.26508224E2,2.1742222E1,4.558136E0,0E0,0E0,0E0,0E0,0E0,0E0,0E0,0E0],"parents":[2147483647,0,0,1,1,3,3,4,4,5,5,6,6,7,7,8,8],"right_children":[2,4,-1,6,8,10,12,14,16,-1,-1,-1,-1,-1,-1,-1,-1],"split_conditions":[8.4822816E-1,6.760495E0,9.929957E-2,-4.0700865E-1,-2.3229578E-1,2.3792217E0,2.3792217E0,2.3792217E0,2.0448636E-1,8.360881E-3,-1.49498945E-2,-1.1365081E-2,1.7322902E-2,1.3220991E-2,-2.0579794E-1,6.1230954E-2,1.1036533E-1],"split_indices":[9,2,0,1,1,13,13,13,1,0,0,0,0,0,0,0,0],"split_type":[0,0,0,0,0,0,0,0,0,0,0,0,0,0,0,0,0],"sum_hessian":[1.59108955E4,1.5812088E4,9.880742E1,1.5685993E4,1.260946E2,6.9917075E3,8.694286E3,4.0304817E1,8.578978E1,6.0554243E3,9.362834E2,6.7005513E3,1.9937344E3,3.6137123E1,4.167692E0,4.587846E1,3.9911316E1],"tree_param":{"num_deleted":"0","num_feature":"17","num_nodes":"17","size_leaf_vector":"1"}},{"base_weights":[-6.0348393E-4,-6.2674037E-3,9.916913E-2,-1.290449E-2,4.171506E-1,6.59202E-2,-4.348819E-2,9.106399E-1,2.741869E-1,3.8400672E-3,6.333404E-2,-4.881211E-3,4.661583E-2,-5.9371036E-2,1.0097176E-1,1.4214039E-2,5.4543313E-2],"categories":[],"categories_nodes":[],"categories_segments":[],"categories_sizes":[],"default_left":[0,0,0,0,0,0,0,0,0,0,0,0,0,0,0,0,0],"id":52,"left_children":[1,3,-1,5,7,9,11,13,15,-1,-1,-1,-1,-1,-1,-1,-1],"loss_changes":[8.973416E1,4.4619476E1,0E0,3.7686237E1,1.7037941E1,6.821302E1,3.0581306E1,8.73909E0,6.7788115E0,0E0,0E0,0E0,0E0,0E0,0E0,0E0,0E0],"parents":[2147483647,0,0,1,1,3,3,4,4,5,5,6,6,7,7,8,8],"right_children":[2,4,-1,6,8,10,12,14,16,-1,-1,-1,-1,-1,-1,-1,-1],"split_conditions":[8.4822816E-1,2.7198904E0,9.916913E-2,-5.817215E-1,2.9773504E-2,1.1588733E0,6.760495E0,-7.564343E-1,9.033378E-1,3.8400672E-3,6.333404E-2,-4.881211E-3,4.661583E-2,-5.9371036E-2,1.0097176E-1,1.4214039E-2,5.4543313E-2],"split_indices":[9,4,0,1,1,4,2,1,1,0,0,0,0,0,0,0,0],"split_type":[0,0,0,0,0,0,0,0,0,0,0,0,0,0,0,0,0],"sum_hessian":[1.5964038E4,1.5874422E4,8.9615944E1,1.5630385E4,2.4403712E2,4.3689487E3,1.1261437E4,5.361082E1,1.9042632E2,4.167877E3,2.010718E2,1.1145907E4,1.1552921E2,3.0041924E0,5.060663E1,1.2910176E2,6.132455E1],"tree_param":{"num_deleted":"0","num_feature":"17","num_nodes":"17","size_leaf_vector":"1"}},{"base_weights":[4.5879753E-3,-4.9890875E-4,9.9024385E-2,-2.8054144E-3,9.61337E-2,-4.71148E-3,1.0302069E0,3.3111904E-2,-1.0403147E-3,1.0644978E-1,1.4846173E-2],"categories":[],"categories_nodes":[],"categories_segments":[],"categories_sizes":[],"default_left":[0,0,0,0,0,0,0,0,0,0,0],"id":53,"left_children":[1,3,-1,5,-1,7,9,-1,-1,-1,-1],"loss_changes":[7.989777E1,3.5175114E1,0E0,3.1149048E1,0E0,3.0183508E1,7.229214E-1,0E0,0E0,0E0,0E0],"parents":[2147483647,0,0,1,1,3,3,5,5,6,6],"right_children":[2,4,-1,6,-1,8,10,-1,-1,-1,-1],"split_conditions":[8.4822816E-1,1.198809E1,9.9024385E-2,2.0964038E0,9.61337E-2,-1.0185037E0,1.7563227E0,3.3111904E-2,-1.0403147E-3,1.0644978E-1,1.4846173E-2],"split_indices":[9,6,0,3,0,1,8,0,0,0,0],"split_type":[0,0,0,0,0,0,0,0,0,0,0],"sum_hessian":[1.5934102E4,1.5853284E4,8.0817924E1,1.5816353E4,3.6930912E1,1.5788217E4,2.8136229E1,2.62167E2,1.552605E4,2.6883472E1,1.2527566E0],"tree_param":{"num_deleted":"0","num_feature":"17","num_nodes":"11","size_leaf_vector":"1"}},{"base_weights":[7.1562766E-3,2.5323418E-3,9.887762E-2,1.0122811E-1,4.4438874E-4,-1.6083339E-3,9.437906E-2,1.1487295E-1,-3.2135466E-4],"categories":[],"categories_nodes":[],"categories_segments":[],"categories_sizes":[],"default_left":[0,0,0,0,0,0,0,0,0],"id":54,"left_children":[1,3,-1,-1,5,7,-1,-1,-1],"loss_changes":[7.195445E1,3.3268444E1,0E0,0E0,3.0497047E1,2.9022282E1,0E0,0E0,0E0],"parents":[2147483647,0,0,1,1,4,4,5,5],"right_children":[2,4,-1,-1,6,8,-1,-1,-1],"split_conditions":[8.4822816E-1,-2.027595E-1,9.887762E-2,1.0122811E-1,1.198809E1,-1.1932164E0,9.437906E-2,1.1487295E-1,-3.2135466E-4],"split_indices":[9,5,0,0,6,1,0,0,0],"split_type":[0,0,0,0,0,0,0,0,0],"sum_hessian":[1.5852228E4,1.5778903E4,7.332417E1,3.156183E1,1.5747342E4,1.57141455E4,3.319571E1,2.0901573E1,1.5693244E4],"tree_param":{"num_deleted":"0","num_feature":"17","num_nodes":"9","size_leaf_vector":"1"}},{"base_weights":[7.217504E-3,2.9946654E-3,9.873013E-2,1.0066259E-1,1.0675086E-3,-1.92103E-3,5.772205E-1,-3.7398413E-4,8.967094E-2,3.6561515E-2,9.788259E-2],"categories":[],"categories_nodes":[],"categories_segments":[],"categories_sizes":[],"default_left":[0,0,0,0,0,0,0,0,0,0,0],"id":55,"left_children":[1,3,-1,-1,5,7,9,-1,-1,-1,-1],"loss_changes":[6.554999E1,3.0504293E1,0E0,0E0,2.7107777E1,2.5602705E1,6.5460777E0,0E0,0E0,0E0,0E0],"parents":[2147483647,0,0,1,1,4,4,5,5,6,6],"right_children":[2,4,-1,-1,6,8,10,-1,-1,-1,-1],"split_conditions":[8.4822816E-1,-2.027595E-1,9.873013E-2,1.0066259E-1,3.1012163E0,1.198809E1,3.9394834E0,-3.7398413E-4,8.967094E-2,3.6561515E-2,9.788259E-2],"split_indices":[9,5,0,0,7,6,7,0,0,0,0],"split_type":[0,0,0,0,0,0,0,0,0,0,0],"sum_hessian":[1.5837884E4,1.5770935E4,6.694839E1,2.9225918E1,1.5741709E4,1.5661469E4,8.024027E1,1.5630828E4,3.0640667E1,5.380229E1,2.6437977E1],"tree_param":{"num_deleted":"0","num_feature":"17","num_nodes":"11","size_leaf_vector":"1"}},{"base_weights":[-5.903265E-3,-9.764868E-3,9.855493E-2,-1.3741888E-2,4.8848218E-1,-1.6126385E-2,8.121799E-1,-3.330051E-2,7.441235E-1,1.1267729E-1,-1.7744045E-3,9.3417495E-2,2.6270677E-3,-1.5570882E-2,6.9462344E-2,7.8780144E-2,-1.9015824E-2],"categories":[],"categories_nodes":[],"categories_segments":[],"categories_sizes":[],"default_left":[0,0,0,0,0,0,0,0,0,0,0,0,0,0,0,0,0],"id":56,"left_children":[1,3,-1,5,7,9,11,13,15,-1,-1,-1,-1,-1,-1,-1,-1],"loss_changes":[6.0628357E1,3.1260942E1,0E0,3.0831924E1,1.6688904E1,2.8870373E1,4.296503E0,3.853873E0,3.573185E0,0E0,0E0,0E0,0E0,0E0,0E0,0E0,0E0],"parents":[2147483647,0,0,1,1,3,3,4,4,5,5,6,6,7,7,8,8],"right_children":[2,4,-1,6,8,10,12,14,16,-1,-1,-1,-1,-1,-1,-1,-1],"split_conditions":[8.4822816E-1,6.760495E0,9.855493E-2,1.4274764E0,-2.3229578E-1,-1.1932164E0,4.2809076E0,1.1588733E0,1.965678E1,1.1267729E-1,-1.7744045E-3,9.3417495E-2,2.6270677E-3,-1.5570882E-2,6.9462344E-2,7.8780144E-2,-1.9015824E-2],"split_indices":[9,2,0,1,1,1,4,4,14,0,0,0,0,0,0,0,0],"split_type":[0,0,0,0,0,0,0,0,0,0,0,0,0,0,0,0,0],"sum_hessian":[1.5832148E4,1.5771709E4,6.0438984E1,1.564778E4,1.2392855E2,1.5603712E4,4.406858E1,4.1037586E1,8.289096E1,2.1071232E1,1.5582641E4,3.798378E1,6.0848E0,3.5803013E1,5.2345734E0,7.9338646E1,3.5523179E0],"tree_param":{"num_deleted":"0","num_feature":"17","num_nodes":"17","size_leaf_vector":"1"}},{"base_weights":[6.9956696E-3,3.5406507E-3,9.837267E-2,1.4411242E-3,8.157339E-1,2.5294606E-2,-6.397448E-2,5.2549666E-1,9.519353E-2,1.1023455E-1,2.3445708E-3,-1.5658267E-2,1.901849E-2,6.75695E-2,2.8471395E-2],"categories":[],"categories_nodes":[],"categories_segments":[],"categories_sizes":[],"default_left":[0,0,0,0,0,0,0,0,0,0,0,0,0,0,0],"id":57,"left_children":[1,3,-1,5,7,9,11,13,-1,-1,-1,-1,-1,-1,-1],"loss_changes":[5.341022E1,2.6895718E1,0E0,2.455215E1,1.107357E0,2.2934837E1,9.89906E1,3.5809278E-1,0E0,0E0,0E0,0E0,0E0,0E0,0E0],"parents":[2147483647,0,0,1,1,3,3,4,4,5,5,6,6,7,7],"right_children":[2,4,-1,6,8,10,12,14,-1,-1,-1,-1,-1,-1,-1],"split_conditions":[8.4822816E-1,3.6573179E0,9.837267E-2,-5.7582922E-2,3.9394834E0,-1.1932164E0,2.3792217E0,3.841153E0,9.519353E-2,1.1023455E-1,2.3445708E-3,-1.5658267E-2,1.901849E-2,6.75695E-2,2.8471395E-2],"split_indices":[9,7,0,1,7,1,13,7,0,0,0,0,0,0,0],"split_type":[0,0,0,0,0,0,0,0,0,0,0,0,0,0,0],"sum_hessian":[1.5827045E4,1.5772257E4,5.478803E1,1.573259E4,3.9667103E1,1.1529153E4,4.2034365E3,1.4221061E1,2.5446041E1,1.8737383E1,1.1510415E4,3.0811428E3,1.1222937E3,7.645571E0,6.57549E0],"tree_param":{"num_deleted":"0","num_feature":"17","num_nodes":"15","size_leaf_vector":"1"}},{"base_weights":[-5.183052E-3,-8.358853E-3,9.817813E-2,-1.2073875E-2,4.670659E-1,9.97357E-2,-1.3798715E-2,-3.0279804E-2,7.078834E-1,-1.5692089E-3,8.766341E-2,2.6033003E-2,-1.4791323E-1,4.7972303E-2,9.699214E-2],"categories":[],"categories_nodes":[],"categories_segments":[],"categories_sizes":[],"default_left":[0,0,0,0,0,0,0,0,0,0,0,0,0,0,0],"id":58,"left_children":[1,3,-1,5,7,-1,9,11,13,-1,-1,-1,-1,-1,-1],"loss_changes":[4.957289E1,2.7847158E1,0E0,2.7248402E1,1.4662909E1,0E0,2.6341877E1,1.7581078E1,4.4615135E0,0E0,0E0,0E0,0E0,0E0,0E0],"parents":[2147483647,0,0,1,1,3,3,4,4,6,6,7,7,8,8],"right_children":[2,4,-1,6,8,-1,10,12,14,-1,-1,-1,-1,-1,-1],"split_conditions":[-1.4561805E-1,6.760495E0,9.817813E-2,-2.027595E-1,-2.3229578E-1,9.97357E-2,3.716794E0,2.0272913E0,2.0448636E-1,-1.5692089E-3,8.766341E-2,2.6033003E-2,-1.4791323E-1,4.7972303E-2,9.699214E-2],"split_indices":[16,2,0,5,1,0,7,5,1,0,0,0,0,0,0],"split_type":[0,0,0,0,0,0,0,0,0,0,0,0,0,0,0],"sum_hessian":[1.5812121E4,1.5762394E4,4.972785E1,1.5641146E4,1.21247055E2,2.569618E1,1.561545E4,3.9840717E1,8.140634E1,1.5583297E4,3.21532E1,3.3867847E1,5.9728694E0,4.502935E1,3.6376987E1],"tree_param":{"num_deleted":"0","num_feature":"17","num_nodes":"15","size_leaf_vector":"1"}},{"base_weights":[-2.5686757E-3,-5.4381047E-3,9.796543E-2,9.916114E-2,-7.0122755E-3,-8.719487E-3,8.8452315E-1,-1.0188167E-3,9.931411E-2,9.1085695E-2,1.7669544E-2],"categories":[],"categories_nodes":[],"categories_segments":[],"categories_sizes":[],"default_left":[0,0,0,0,0,0,0,0,0,0,0],"id":59,"left_children":[1,3,-1,-1,5,7,9,-1,-1,-1,-1],"loss_changes":[4.4593903E1,2.476675E1,0E0,0E0,2.3982067E1,2.3144167E1,4.0038872E-1,0E0,0E0,0E0,0E0],"parents":[2147483647,0,0,1,1,4,4,5,5,6,6],"right_children":[2,4,-1,-1,6,8,10,-1,-1,-1,-1],"split_conditions":[8.4822816E-1,-2.027595E-1,9.796543E-2,9.916114E-2,1.198809E1,2.0964038E0,1.3484027E0,-1.0188167E-3,9.931411E-2,9.1085695E-2,1.7669544E-2],"split_indices":[9,5,0,0,6,3,7,0,0,0,0],"split_type":[0,0,0,0,0,0,0,0,0,0,0],"sum_hessian":[1.5819422E4,1.5774334E4,4.5088085E1,2.3874313E1,1.575046E4,1.5721345E4,2.9114777E1,1.569932E4,2.202462E1,2.7793907E1,1.3208684E0],"tree_param":{"num_deleted":"0","num_feature":"17","num_nodes":"11","size_leaf_vector":"1"}},{"base_weights":[-6.400451E-3,-9.026262E-3,9.7741276E-2,-1.4394738E-2,3.2988814E-1,5.535156E-1,-1.720008E-2,7.06842E-1,2.2008698E-1,1.0833599E-1,3.7627086E-2,4.8692833E-4,-8.032367E-3,-3.9370354E-2,7.920117E-2,-8.927409E-3,3.3737093E-2],"categories":[],"categories_nodes":[],"categories_segments":[],"categories_sizes":[],"default_left":[0,0,0,0,0,0,0,0,0,0,0,0,0,0,0,0,0],"id":60,"left_children":[1,3,-1,5,7,9,11,13,15,-1,-1,-1,-1,-1,-1,-1,-1],"loss_changes":[4.075861E1,2.8630707E1,0E0,2.4686174E1,1.0000456E1,6.7452316E0,2.1473215E1,5.457657E0,6.9774323E0,0E0,0E0,0E0,0E0,0E0,0E0,0E0,0E0],"parents":[2147483647,0,0,1,1,3,3,4,4,5,5,6,6,7,7,8,8],"right_children":[2,4,-1,6,8,10,12,14,16,-1,-1,-1,-1,-1,-1,-1,-1],"split_conditions":[8.4822816E-1,2.7198904E0,9.7741276E-2,-1.1058601E0,2.9773504E-2,-1.1932164E0,-5.7582922E-2,-5.817215E-1,3.791992E-1,1.0833599E-1,3.7627086E-2,4.8692833E-4,-8.032367E-3,-3.9370354E-2,7.920117E-2,-8.927409E-3,3.3737093E-2],"split_indices":[9,4,0,1,1,1,1,1,1,0,0,0,0,0,0,0,0],"split_type":[0,0,0,0,0,0,0,0,0,0,0,0,0,0,0,0,0],"sum_hessian":[1.5773269E4,1.573227E4,4.099882E1,1.54878955E4,2.4437401E2,7.516554E1,1.541273E4,5.38988E1,1.9047522E2,1.7560144E1,5.7605396E1,1.1420723E4,3.9920078E3,3.6113324E0,5.0287468E1,5.242695E1,1.3804826E2],"tree_param":{"num_deleted":"0","num_feature":"17","num_nodes":"17","size_leaf_vector":"1"}},{"base_weights":[1.3288984E-3,-1.034124E-3,9.7488515E-2,9.8525435E-2,-2.4675012E-3,-9.4211325E-3,2.027583E-1,4.9576736E-3,-3.2905259E-3,1.4972634E-2,9.470147E-2],"categories":[],"categories_nodes":[],"categories_segments":[],"categories_sizes":[],"default_left":[0,0,0,0,0,0,0,0,0,0,0],"id":61,"left_children":[1,3,-1,-1,5,7,9,-1,-1,-1,-1],"loss_changes":[3.6234158E1,2.2215902E1,0E0,0E0,2.2393892E1,2.1030485E1,2.0156288E1,0E0,0E0,0E0,0E0],"parents":[2147483647,0,0,1,1,4,4,5,5,6,6],"right_children":[2,4,-1,-1,6,8,10,-1,-1,-1,-1],"split_conditions":[8.4822816E-1,-2.027595E-1,9.7488515E-2,9.8525435E-2,6.412685E-1,-5.817215E-1,1.4526036E-1,4.9576736E-3,-3.2905259E-3,1.4972634E-2,9.470147E-2],"split_indices":[9,5,0,0,1,1,3,0,0,0,0],"split_type":[0,0,0,0,0,0,0,0,0,0,0],"sum_hessian":[1.5748879E4,1.5711742E4,3.7136715E1,2.1804754E1,1.56899375E4,1.5176664E4,5.1327423E2,4.3207563E3,1.0855907E4,4.8025485E2,3.3019367E1],"tree_param":{"num_deleted":"0","num_feature":"17","num_nodes":"11","size_leaf_vector":"1"}},{"base_weights":[-3.820822E-3,-5.9841676E-3,9.722217E-2,-7.3373797E-3,1.0011371E-1,-1.0513424E-2,3.9691883E-1,2.1154585E-3,-5.8626714E-3,-1.2479989E-2,6.6724114E-2],"categories":[],"categories_nodes":[],"categories_segments":[],"categories_sizes":[],"default_left":[0,0,0,0,0,0,0,0,0,0,0],"id":62,"left_children":[1,3,-1,5,-1,7,9,-1,-1,-1,-1],"loss_changes":[3.317579E1,2.1370445E1,0E0,2.0104548E1,0E0,2.3669987E1,1.729808E1,0E0,0E0,0E0,0E0],"parents":[2147483647,0,0,1,1,3,3,5,5,6,6],"right_children":[2,4,-1,6,-1,8,10,-1,-1,-1,-1],"split_conditions":[-1.4561805E-1,2.0964038E0,9.722217E-2,6.760495E0,1.0011371E-1,-2.3229578E-1,-2.3229578E-1,2.1154585E-3,-5.8626714E-3,-1.2479989E-2,6.6724114E-2],"split_indices":[16,3,0,2,0,1,1,0,0,0,0],"split_type":[0,0,0,0,0,0,0,0,0,0,0],"sum_hessian":[1.5708072E4,1.5674325E4,3.3747425E1,1.5654284E4,2.0041065E1,1.5533221E4,1.2106294E2,9.367877E3,6.1653447E3,4.1502316E1,7.956063E1],"tree_param":{"num_deleted":"0","num_feature":"17","num_nodes":"11","size_leaf_vector":"1"}},{"base_weights":[5.5622067E-3,3.6196883E-3,9.6924946E-2,1.0654469E-1,2.4213467E-3,9.760641E-2,1.1621286E-3,-2.6038133E-5,8.5346416E-2],"categories":[],"categories_nodes":[],"categories_segments":[],"categories_sizes":[],"default_left":[0,0,0,0,0,0,0,0,0],"id":63,"left_children":[1,3,-1,-1,5,-1,7,-1,-1],"loss_changes":[2.939607E1,1.994212E1,0E0,0E0,1.9195786E1,0E0,1.8960573E1,0E0,0E0],"parents":[2147483647,0,0,1,1,4,4,6,6],"right_children":[2,4,-1,-1,6,-1,8,-1,-1],"split_conditions":[8.4822816E-1,-1.1932164E0,9.6924946E-2,1.0654469E-1,-2.027595E-1,9.760641E-2,1.198809E1,-2.6038133E-5,8.5346416E-2],"split_indices":[9,1,0,0,5,0,6,0,0],"split_type":[0,0,0,0,0,0,0,0,0],"sum_hessian":[1.5704066E4,1.5673478E4,3.0589504E1,1.6667458E1,1.565681E4,1.922299E1,1.5637587E4,1.5612529E4,2.5057945E1],"tree_param":{"num_deleted":"0","num_feature":"17","num_nodes":"9","size_leaf_vector":"1"}},{"base_weights":[4.050124E-3,6.8001787E-4,5.721246E-1,-2.6642133E-3,4.3962538E-1,4.092413E-1,1.0288666E0,-4.107661E-3,9.876299E-1,8.001037E-2,6.325665E-1,3.5711864E-1,8.741083E-2,1.1226225E-1,3.8842064E-1,1.8052591E-3,-6.7397356E-3,1.0885316E-1,6.238804E-2,3.3128854E-2,-1.2608363E-1,6.650643E-2,-4.594387E-3,3.9144482E-2,-3.113772E-2,3.5146487E-4,7.191561E-2],"categories":[],"categories_nodes":[],"categories_segments":[],"categories_sizes":[],"default_left":[0,0,0,0,0,0,0,0,0,0,0,0,0,0,0,0,0,0,0,0,0,0,0,0,0,0,0],"id":64,"left_children":[1,3,5,7,9,11,13,15,17,19,21,23,-1,-1,25,-1,-1,-1,-1,-1,-1,-1,-1,-1,-1,-1,-1],"loss_changes":[3.0213226E1,2.3032524E1,6.5030804E0,2.226325E1,8.181042E0,1.3903942E0,9.9337196E-1,2.1810787E1,1.5289688E-1,1.47608795E1,1.7298985E0,1.6105137E0,0E0,0E0,5.791108E-1,0E0,0E0,0E0,0E0,0E0,0E0,0E0,0E0,0E0,0E0,0E0,0E0],"parents":[2147483647,0,0,1,1,2,2,3,3,4,4,5,5,6,6,7,7,8,8,9,9,10,10,11,11,14,14],"right_children":[2,4,6,8,10,12,14,16,18,20,22,24,-1,-1,26,-1,-1,-1,-1,-1,-1,-1,-1,-1,-1,-1,-1],"split_conditions":[1.2527635E0,6.760495E0,1.7769021E0,2.0964038E0,-2.3229578E-1,1.4526036E-1,4.2809076E0,-5.7582922E-2,2.0272913E0,2.0272913E0,1.965678E1,2.5323505E0,8.741083E-2,1.1226225E-1,2.0389714E0,1.8052591E-3,-6.7397356E-3,1.0885316E-1,6.238804E-2,3.3128854E-2,-1.2608363E-1,6.650643E-2,-4.594387E-3,3.9144482E-2,-3.113772E-2,3.5146487E-4,7.191561E-2],"split_indices":[1,2,1,3,1,3,4,1,5,5,14,8,0,0,1,0,0,0,0,0,0,0,0,0,0,0,0],"split_type":[0,0,0,0,0,0,0,0,0,0,0,0,0,0,0,0,0,0,0,0,0,0,0,0,0,0,0],"sum_hessian":[1.5780701E4,1.568863E4,9.207172E1,1.5570991E4,1.1763814E2,6.926607E1,2.2805653E1,1.5549322E4,2.1668764E1,4.1570774E1,7.606736E1,6.387264E1,5.3934283E0,1.923669E1,3.5689626E0,1.1517352E4,4.0319707E3,1.5403423E1,6.265341E0,3.5643932E1,5.926841E0,7.260949E1,3.4578712E0,6.1147263E1,2.725373E0,2.1164684E0,1.4524943E0],"tree_param":{"num_deleted":"0","num_feature":"17","num_nodes":"27","size_leaf_vector":"1"}},{"base_weights":[1.716587E-3,-1.6897505E-3,5.07104E-1,9.742646E-2,-3.0760814E-3,3.6533648E-1,9.145923E-1,-4.5242608E-3,8.847868E-1,1.8049595E-1,6.069045E-1,9.902911E-1,2.794153E-1,-9.696527E-4,2.2864403E-2,9.178614E-2,7.877202E-3,1.3367242E-2,7.3132426E-2,7.365861E-2,1.0521462E-2,3.7151113E-2,1.0723505E-1,-3.239714E-2,5.9607513E-2],"categories":[],"categories_nodes":[],"categories_segments":[],"categories_sizes":[],"default_left":[0,0,0,0,0,0,0,0,0,0,0,0,0,0,0,0,0,0,0,0,0,0,0,0,0],"id":65,"left_children":[1,3,5,-1,7,9,11,13,15,17,19,21,23,-1,-1,-1,-1,-1,-1,-1,-1,-1,-1,-1,-1],"loss_changes":[2.7088594E1,2.115091E1,5.751587E0,0E0,2.0074148E1,3.4545832E0,9.987087E-1,1.879766E1,6.054573E-1,1.1052516E0,2.1460953E0,7.851143E-1,9.989779E-1,0E0,0E0,0E0,0E0,0E0,0E0,0E0,0E0,0E0,0E0,0E0,0E0],"parents":[2147483647,0,0,1,1,2,2,4,4,5,5,6,6,7,7,8,8,9,9,10,10,11,11,12,12],"right_children":[2,4,6,-1,8,10,12,14,16,18,20,22,24,-1,-1,-1,-1,-1,-1,-1,-1,-1,-1,-1,-1],"split_conditions":[1.1654071E0,-2.027595E-1,1.6895456E0,9.742646E-2,1.198809E1,1.1588733E0,4.2809076E0,1.6800683E0,1.2353961E0,1.4526036E-1,4.2809076E0,2.042674E-1,5.8419247E0,-9.696527E-4,2.2864403E-2,9.178614E-2,7.877202E-3,1.3367242E-2,7.3132426E-2,7.365861E-2,1.0521462E-2,3.7151113E-2,1.0723505E-1,-3.239714E-2,5.9607513E-2],"split_indices":[1,5,1,0,6,4,4,7,7,3,4,8,4,0,0,0,0,0,0,0,0,0,0,0,0],"split_type":[0,0,0,0,0,0,0,0,0,0,0,0,0,0,0,0,0,0,0,0,0,0,0,0,0],"sum_hessian":[1.5733781E4,1.5629435E4,1.0434655E2,2.1174492E1,1.560826E4,7.882088E1,2.5525675E1,1.5583836E4,2.4423649E1,4.5643238E1,3.3177635E1,2.2307985E1,3.217688E0,1.5246587E4,3.3724973E2,2.332764E1,1.0960082E0,4.32126E1,2.43064E0,2.599102E1,7.186616E0,3.2591634E0,1.9048822E1,1.0995106E0,2.1181774E0],"tree_param":{"num_deleted":"0","num_feature":"17","num_nodes":"25","size_leaf_vector":"1"}},{"base_weights":[-4.16744E-4,-2.0451944E-3,9.631083E-2,-3.3278274E-3,8.3164537E-1,1.0416698E-1,-4.3292525E-3,2.8125122E-1,8.9750804E-2,9.608057E-2,-5.349032E-4,5.6172043E-2,-3.5260748E-3],"categories":[],"categories_nodes":[],"categories_segments":[],"categories_sizes":[],"default_left":[0,0,0,0,0,0,0,0,0,0,0,0,0],"id":66,"left_children":[1,3,-1,5,7,-1,9,11,-1,-1,-1,-1,-1],"loss_changes":[2.4698788E1,1.680647E1,0E0,1.6425194E1,6.2278557E-1,0E0,1.5435057E1,3.781543E-1,0E0,0E0,0E0,0E0,0E0],"parents":[2147483647,0,0,1,1,3,3,4,4,6,6,7,7],"right_children":[2,4,-1,6,8,-1,10,12,-1,-1,-1,-1,-1],"split_conditions":[8.4822816E-1,1.198809E1,9.631083E-2,-1.1932164E0,-8.4379077E-1,1.0416698E-1,-2.027595E-1,-9.311472E-1,8.9750804E-2,9.608057E-2,-5.349032E-4,5.6172043E-2,-3.5260748E-3],"split_indices":[9,6,0,1,1,0,5,1,0,0,0,0,0],"split_type":[0,0,0,0,0,0,0,0,0,0,0,0,0],"sum_hessian":[1.5738955E4,1.57133955E4,2.5559277E1,1.5690252E4,2.3143452E1,1.4026726E1,1.5676226E4,3.0367255E0,2.0106726E1,1.5552901E1,1.5660673E4,1.1992867E0,1.837439E0],"tree_param":{"num_deleted":"0","num_feature":"17","num_nodes":"13","size_leaf_vector":"1"}},{"base_weights":[-3.4913355E-3,-4.9710483E-3,9.591366E-2,-1.1105283E-2,1.6374867E-1,1.0276629E-1,-1.2085596E-2,4.9530315E-1,4.1351896E-2,-3.245872E-3,3.985284E-3,3.2616884E-2,7.482842E-2,-4.887955E-3,3.9446887E-2],"categories":[],"categories_nodes":[],"categories_segments":[],"categories_sizes":[],"default_left":[0,0,0,0,0,0,0,0,0,0,0,0,0,0,0],"id":67,"left_children":[1,3,-1,5,7,-1,9,11,13,-1,-1,-1,-1,-1,-1],"loss_changes":[2.233606E1,1.6203674E1,0E0,1.5395358E1,2.2268927E1,0E0,1.5971886E1,6.088604E0,1.28359585E1,0E0,0E0,0E0,0E0,0E0,0E0],"parents":[2147483647,0,0,1,1,3,3,4,4,6,6,7,7,8,8],"right_children":[2,4,-1,6,8,-1,10,12,14,-1,-1,-1,-1,-1,-1],"split_conditions":[8.4822816E-1,8.3689904E-1,9.591366E-2,-1.1932164E0,-7.564343E-1,1.0276629E-1,2.042674E-1,1.9859183E0,2.0272913E0,-3.245872E-3,3.985284E-3,3.2616884E-2,7.482842E-2,-4.887955E-3,3.9446887E-2],"split_indices":[9,7,0,1,1,0,8,7,5,0,0,0,0,0,0],"split_type":[0,0,0,0,0,0,0,0,0,0,0,0,0,0,0],"sum_hessian":[1.5676542E4,1.5653476E4,2.3067055E1,1.5105221E4,5.482546E2,1.3254324E1,1.5091966E4,1.4700188E2,4.012527E2,1.0840212E4,4.251755E3,8.9472786E1,5.7529087E1,3.202749E2,8.097778E1],"tree_param":{"num_deleted":"0","num_feature":"17","num_nodes":"15","size_leaf_vector":"1"}},{"base_weights":[1.6490703E-3,1.6944851E-4,9.724986E-2,-2.8612183E-3,3.9816156E-1,9.64017E-2,-4.0439386E-3,3.1621826E-1,8.2242113E-1,-6.570992E-4,3.3187285E-2,1.5528633E-2,5.342525E-2,9.515445E-2,1.860428E-2],"categories":[],"categories_nodes":[],"categories_segments":[],"categories_sizes":[],"default_left":[0,0,0,0,0,0,0,0,0,0,0,0,0,0,0],"id":68,"left_children":[1,3,-1,5,7,-1,9,11,13,-1,-1,-1,-1,-1,-1],"loss_changes":[2.2465601E1,1.883753E1,0E0,1.7728323E1,3.8431625E0,0E0,1.3144178E1,3.4450445E0,1.3416033E0,0E0,0E0,0E0,0E0,0E0,0E0],"parents":[2147483647,0,0,1,1,3,3,4,4,6,6,7,7,8,8],"right_children":[2,4,-1,6,8,-1,10,12,14,-1,-1,-1,-1,-1,-1],"split_conditions":[2.0964038E0,1.0780506E0,9.724986E-2,-2.027595E-1,1.7769021E0,9.64017E-2,6.760495E0,1.1588733E0,4.2809076E0,-6.570992E-4,3.3187285E-2,1.5528633E-2,5.342525E-2,9.515445E-2,1.860428E-2],"split_indices":[3,1,0,5,1,0,2,4,4,0,0,0,0,0,0],"split_type":[0,0,0,0,0,0,0,0,0,0,0,0,0,0,0],"sum_hessian":[1.5638347E4,1.5615548E4,2.279868E1,1.5498521E4,1.1702675E2,1.794059E1,1.548058E4,9.954546E1,1.748129E1,1.5365965E4,1.1461548E2,5.8257545E1,4.1287914E1,1.4120869E1,3.3604221E0],"tree_param":{"num_deleted":"0","num_feature":"17","num_nodes":"15","size_leaf_vector":"1"}},{"base_weights":[7.840774E-3,6.5667224E-3,9.531804E-2,8.9577714E-4,1.7505729E-1,-2.568279E-4,8.413219E-2,1.5337989E-1,8.025269E-1,9.4444685E-2,-1.1173353E-4,1.0497709E-2,4.251636E-2,9.4518654E-2,5.0529163E-2],"categories":[],"categories_nodes":[],"categories_segments":[],"categories_sizes":[],"default_left":[0,0,0,0,0,0,0,0,0,0,0,0,0,0,0],"id":69,"left_children":[1,3,-1,5,7,9,-1,11,13,-1,-1,-1,-1,-1,-1],"loss_changes":[1.8871777E1,1.4957235E1,0E0,1.4671128E1,6.80995E0,1.2296968E1,0E0,6.4530077E0,2.341404E-1,0E0,0E0,0E0,0E0,0E0,0E0],"parents":[2147483647,0,0,1,1,3,3,4,4,5,5,7,7,8,8],"right_children":[2,4,-1,6,8,10,-1,12,14,-1,-1,-1,-1,-1,-1],"split_conditions":[8.4822816E-1,6.3304627E-1,9.531804E-2,1.198809E1,2.0964038E0,-2.027595E-1,8.413219E-2,2.0272913E0,2.042674E-1,9.4444685E-2,-1.1173353E-4,1.0497709E-2,4.251636E-2,9.4518654E-2,5.0529163E-2],"split_indices":[9,3,0,6,3,5,0,5,8,0,0,0,0,0,0],"split_type":[0,0,0,0,0,0,0,0,0,0,0,0,0,0,0],"sum_hessian":[1.5673071E4,1.5652982E4,2.0088871E1,1.5144271E4,5.0871066E2,1.5124529E4,1.974289E1,4.929258E2,1.5784834E1,1.2766117E1,1.5111763E4,4.1958658E2,7.3339226E1,9.192782E0,6.592052E0],"tree_param":{"num_deleted":"0","num_feature":"17","num_nodes":"15","size_leaf_vector":"1"}},{"base_weights":[8.236285E-3,7.078533E-3,9.484909E-2,2.4531996E-1,3.1111122E-3,1.0130403E-1,2.0190708E-1,2.0347463E-3,8.31857E-1,1.6673176E-2,1.0459312E-1,8.114025E-5,7.3010884E-2,1.2278797E-2,9.19177E-2],"categories":[],"categories_nodes":[],"categories_segments":[],"categories_sizes":[],"default_left":[0,0,0,0,0,0,0,0,0,0,0,0,0,0,0],"id":70,"left_children":[1,3,-1,5,7,-1,9,11,13,-1,-1,-1,-1,-1,-1],"loss_changes":[1.700578E1,1.4753785E1,0E0,8.317009E0,1.3695688E1,0E0,7.0472546E0,1.3659229E1,1.120183E0,0E0,0E0,0E0,0E0,0E0,0E0],"parents":[2147483647,0,0,1,1,3,3,4,4,6,6,7,7,8,8],"right_children":[2,4,-1,6,8,-1,10,12,14,-1,-1,-1,-1,-1,-1],"split_conditions":[8.4822816E-1,-1.0185037E0,9.484909E-2,-1.1932164E0,1.198809E1,1.0130403E-1,9.230931E-1,1.6021892E0,-8.4379077E-1,1.6673176E-2,1.0459312E-1,8.114025E-5,7.3010884E-2,1.2278797E-2,9.19177E-2],"split_indices":[9,1,0,1,6,0,7,1,1,0,0,0,0,0,0],"split_type":[0,0,0,0,0,0,0,0,0,0,0,0,0,0,0],"sum_hessian":[1.5627119E4,1.5608907E4,1.8212004E1,2.5468001E2,1.5354228E4,1.2435403E1,2.4224461E2,1.53353125E4,1.8914871E1,2.3370244E2,8.542174E0,1.5310588E4,2.4724447E1,2.3377445E0,1.6577127E1],"tree_param":{"num_deleted":"0","num_feature":"17","num_nodes":"15","size_leaf_vector":"1"}},{"base_weights":[-1.152754E-3,-2.220516E-3,9.438546E-2,-3.305646E-3,8.262852E-2,-5.6723603E-3,3.0421647E-1,-6.1731203E-4,1.780037E-1,1.8502481E-2,7.314757E-2],"categories":[],"categories_nodes":[],"categories_segments":[],"categories_sizes":[],"default_left":[0,0,0,0,0,0,0,0,0,0,0],"id":71,"left_children":[1,3,-1,5,-1,7,9,-1,-1,-1,-1],"loss_changes":[1.5786E1,1.4050885E1,0E0,1.1360293E1,0E0,1.386066E1,5.9354486E0,0E0,0E0,0E0,0E0],"parents":[2147483647,0,0,1,1,3,3,5,5,6,6],"right_children":[2,4,-1,6,-1,8,10,-1,-1,-1,-1],"split_conditions":[-1.4561805E-1,3.9394834E0,9.438546E-2,6.760495E0,8.262852E-2,1.965678E1,1.1588733E0,-6.1731203E-4,1.780037E-1,1.8502481E-2,7.314757E-2],"split_indices":[16,7,0,2,0,14,4,0,0,0,0],"split_type":[0,0,0,0,0,0,0,0,0,0,0],"sum_hessian":[1.5641449E4,1.5624792E4,1.6656775E1,1.560535E4,1.9442991E1,1.5487141E4,1.182087E2,1.5483795E4,3.34552E0,9.354555E1,2.466316E1],"tree_param":{"num_deleted":"0","num_feature":"17","num_nodes":"11","size_leaf_vector":"1"}},{"base_weights":[-7.163908E-3,-8.140692E-3,9.384876E-2,9.974015E-2,-8.934947E-3,-1.3076714E-2,1.6790655E-1,-1.4007058E-3,7.573437E-2,4.234872E-2,5.6998166E-3],"categories":[],"categories_nodes":[],"categories_segments":[],"categories_sizes":[],"default_left":[0,0,0,0,0,0,0,0,0,0,0],"id":72,"left_children":[1,3,-1,-1,5,7,9,-1,-1,-1,-1],"loss_changes":[1.4448636E1,1.24829645E1,0E0,0E0,1.143365E1,1.0941987E1,1.0102356E1,0E0,0E0,0E0,0E0],"parents":[2147483647,0,0,1,1,4,4,5,5,6,6],"right_children":[2,4,-1,-1,6,8,10,-1,-1,-1,-1],"split_conditions":[-1.4561805E-1,-1.1932164E0,9.384876E-2,9.974015E-2,1.5921055E0,1.198809E1,-7.564343E-1,-1.4007058E-3,7.573437E-2,4.234872E-2,5.6998166E-3],"split_indices":[16,1,0,0,7,6,1,0,0,0,0],"split_type":[0,0,0,0,0,0,0,0,0,0,0],"sum_hessian":[1.5632913E4,1.5617773E4,1.5140537E1,1.1336068E1,1.5606437E4,1.5250191E4,3.5624545E2,1.5232778E4,1.741297E1,1.06955536E2,2.492899E2],"tree_param":{"num_deleted":"0","num_feature":"17","num_nodes":"11","size_leaf_vector":"1"}},{"base_weights":[-4.637105E-3,-5.527999E-3,9.327093E-2,9.896591E-2,-6.3152337E-3,-7.7013234E-3,4.7711566E-1,7.3986984E-4,-5.0275843E-3,5.544966E-2,-9.695128E-4],"categories":[],"categories_nodes":[],"categories_segments":[],"categories_sizes":[],"default_left":[0,0,0,0,0,0,0,0,0,0,0],"id":73,"left_children":[1,3,-1,-1,5,7,9,-1,-1,-1,-1],"loss_changes":[1.2991961E1,1.2179334E1,0E0,0E0,1.0407705E1,9.954137E0,1.6781569E0,0E0,0E0,0E0,0E0],"parents":[2147483647,0,0,1,1,4,4,5,5,6,6],"right_children":[2,4,-1,-1,6,8,10,-1,-1,-1,-1],"split_conditions":[8.4822816E-1,-1.1932164E0,9.327093E-2,9.896591E-2,1.4274764E0,-5.7582922E-2,4.2809076E0,7.3986984E-4,-5.0275843E-3,5.544966E-2,-9.695128E-4],"split_indices":[9,1,0,0,1,1,4,0,0,0,0],"split_type":[0,0,0,0,0,0,0,0,0,0,0],"sum_hessian":[1.5550643E4,1.553687E4,1.3772799E1,1.1287735E1,1.5525582E4,1.5482176E4,4.3406326E1,1.142933E4,4.052846E3,3.7333023E1,6.0733027E0],"tree_param":{"num_deleted":"0","num_feature":"17","num_nodes":"11","size_leaf_vector":"1"}},{"base_weights":[3.238141E-3,-2.2883117E-3,1.945914E-1,1.5242345E-2,-5.4835156E-2,1.5058254E-1,7.248758E-1,5.616895E-3,1.422299E-1,-1.3221994E-1,1.7285994E-1,4.3286234E-2,2.951417E-1,7.869384E-2,1.6852614E-1,1.9470941E-3,-6.3496865E-3,8.0909066E-2,1.8326149E-3,-1.4433468E-2,2.2932585E-2,1.5605986E-2,4.8693735E-2,-5.9105027E-3,1.8287472E-2,8.598591E-3,5.9774484E-2,-3.7346497E-2,6.459795E-2],"categories":[],"categories_nodes":[],"categories_segments":[],"categories_sizes":[],"default_left":[0,0,0,0,0,0,0,0,0,0,0,0,0,0,0,0,0,0,0,0,0,0,0,0,0,0,0,0,0],"id":74,"left_children":[1,3,5,7,9,11,13,15,17,19,21,23,25,-1,27,-1,-1,-1,-1,-1,-1,-1,-1,-1,-1,-1,-1,-1,-1],"loss_changes":[1.6530481E1,1.3996692E1,1.0130791E1,1.3925468E1,6.6997185E1,6.2910604E0,1.0193272E0,1.0142814E1,6.631042E1,1.246114E1,5.0136147E0,3.361678E0,1.0896229E1,0E0,1.4369687E0,0E0,0E0,0E0,0E0,0E0,0E0,0E0,0E0,0E0,0E0,0E0,0E0,0E0,0E0],"parents":[2147483647,0,0,1,1,2,2,3,3,4,4,5,5,6,6,7,7,8,8,9,9,10,10,11,11,12,12,14,14],"right_children":[2,4,6,8,10,12,14,16,18,20,22,24,26,-1,28,-1,-1,-1,-1,-1,-1,-1,-1,-1,-1,-1,-1,-1,-1],"split_conditions":[9.8029506E-1,-5.7582922E-2,-2.928474E-2,1.1588733E0,2.0272913E0,3.791992E-1,2.5198376E0,2.0272913E0,-6.6907793E-1,-2.928474E-2,-2.928474E-2,2.7198904E0,2.0272913E0,7.869384E-2,8.4822816E-1,1.9470941E-3,-6.3496865E-3,8.0909066E-2,1.8326149E-3,-1.4433468E-2,2.2932585E-2,1.5605986E-2,4.8693735E-2,-5.9105027E-3,1.8287472E-2,8.598591E-3,5.9774484E-2,-3.7346497E-2,6.459795E-2],"split_indices":[8,1,7,4,5,1,7,5,1,7,7,4,5,0,9,0,0,0,0,0,0,0,0,0,0,0,0,0,0],"split_type":[0,0,0,0,0,0,0,0,0,0,0,0,0,0,0,0,0,0,0,0,0,0,0,0,0,0,0,0,0],"sum_hessian":[1.5630171E4,1.519239E4,4.377817E2,1.1392379E4,3.8000107E3,4.054195E2,3.236223E1,1.0590668E4,8.0171106E2,2.836435E3,9.6357574E2,2.3344716E2,1.7197232E2,2.874155E1,3.620678E0,8.822826E3,1.7678419E3,1.2475248E2,6.7695856E2,2.7450542E3,9.138082E1,9.160718E2,4.7504E1,1.3499898E2,9.844818E1,1.0244659E2,6.9525734E1,1.797737E0,1.8229411E0],"tree_param":{"num_deleted":"0","num_feature":"17","num_nodes":"29","size_leaf_vector":"1"}},{"base_weights":[3.221932E-4,9.505772E-2,-6.499824E-4,-2.7126067E-3,4.0082023E-1,1.2976611E-2,-4.757815E-2,6.707263E-2,5.204712E-1,1.0692695E-3,6.354127E-2,-1.1786591E-2,1.4162256E-2,-4.774273E-2,4.955897E-2,6.172744E-2,-1.0555019E-2],"categories":[],"categories_nodes":[],"categories_segments":[],"categories_sizes":[],"default_left":[0,0,0,0,0,0,0,0,0,0,0,0,0,0,0,0,0],"id":75,"left_children":[1,-1,3,5,7,9,11,13,15,-1,-1,-1,-1,-1,-1,-1,-1],"loss_changes":[1.438916E1,0E0,1.2886228E1,1.08982525E1,3.1414413E0,1.6300713E1,5.336206E1,5.4021916E0,3.6044054E0,0E0,0E0,0E0,0E0,0E0,0E0,0E0,0E0],"parents":[2147483647,0,0,2,2,3,3,4,4,5,5,6,6,7,7,8,8],"right_children":[2,-1,4,6,8,10,12,14,16,-1,-1,-1,-1,-1,-1,-1,-1],"split_conditions":[-2.027595E-1,9.505772E-2,1.2527635E0,-5.7582922E-2,2.042674E-1,2.7198904E0,2.0272913E0,1.4274764E0,4.2809076E0,1.0692695E-3,6.354127E-2,-1.1786591E-2,1.4162256E-2,-4.774273E-2,4.955897E-2,6.172744E-2,-1.0555019E-2],"split_indices":[5,0,1,1,8,4,5,1,4,0,0,0,0,0,0,0,0],"split_type":[0,0,0,0,0,0,0,0,0,0,0,0,0,0,0,0,0],"sum_hessian":[1.5574138E4,1.4918826E1,1.555922E4,1.5480678E4,7.854148E1,1.1470294E4,4.010384E3,2.113877E1,5.7402706E1,1.1429373E4,4.0920853E1,2.9243643E3,1.0860197E3,9.259256E0,1.1879513E1,4.972724E1,7.675468E0],"tree_param":{"num_deleted":"0","num_feature":"17","num_nodes":"17","size_leaf_vector":"1"}},{"base_weights":[-1.6259679E-3,9.4412826E-2,-2.5203107E-3,-5.0044586E-3,3.2039288E-1,2.1580003E-1,-8.62855E-3,1.1485375E-1,8.149448E-1,9.664342E-2,1.8254545E-2,-9.546629E-4,7.918317E-2,2.9610632E-2,-8.5923545E-2,5.342674E-2,1.06699966E-1],"categories":[],"categories_nodes":[],"categories_segments":[],"categories_sizes":[],"default_left":[0,0,0,0,0,0,0,0,0,0,0,0,0,0,0,0,0],"id":76,"left_children":[1,-1,3,5,7,9,11,13,15,-1,-1,-1,-1,-1,-1,-1,-1],"loss_changes":[1.3157451E1,0E0,1.2466579E1,1.2342418E1,1.1966596E1,6.0407944E0,1.1158333E1,1.525744E1,1.882616E0,0E0,0E0,0E0,0E0,0E0,0E0,0E0,0E0],"parents":[2147483647,0,0,2,2,3,3,4,4,5,5,6,6,7,7,8,8],"right_children":[2,-1,4,6,8,10,12,14,16,-1,-1,-1,-1,-1,-1,-1,-1],"split_conditions":[-2.027595E-1,9.4412826E-2,6.760495E0,-1.0185037E0,2.0448636E-1,-1.1932164E0,2.0964038E0,2.0272913E0,2.0272913E0,9.664342E-2,1.8254545E-2,-9.546629E-4,7.918317E-2,2.9610632E-2,-8.5923545E-2,5.342674E-2,1.06699966E-1],"split_indices":[5,0,2,1,1,1,3,5,5,0,0,0,0,0,0,0,0],"split_type":[0,0,0,0,0,0,0,0,0,0,0,0,0,0,0,0,0],"sum_hessian":[1.5551881E4,1.3696192E1,1.5538185E4,1.542054E4,1.176446E2,2.4806674E2,1.5172474E4,8.397588E1,3.3668713E1,9.333186E0,2.3873355E2,1.5156078E4,1.6395031E1,7.138839E1,1.2587497E1,1.7405901E1,1.626281E1],"tree_param":{"num_deleted":"0","num_feature":"17","num_nodes":"17","size_leaf_vector":"1"}},{"base_weights":[1.7037739E-4,-3.7489187E-3,2.4918064E-1,9.309454E-2,-4.512084E-3,1.8941514E-1,6.1226434E-1,-5.304958E-3,8.179857E-1,2.3159514E-1,-6.8760954E-2,6.7376755E-2,2.0483822E-2,-7.274269E-4,2.5849408E-2,9.2433125E-2,4.4289194E-2,2.1627251E-2,4.2763826E-2,-2.115418E-2,6.1313834E-2],"categories":[],"categories_nodes":[],"categories_segments":[],"categories_sizes":[],"default_left":[0,0,0,0,0,0,0,0,0,0,0,0,0,0,0,0,0,0,0,0,0],"id":77,"left_children":[1,3,5,-1,7,9,11,13,15,17,19,-1,-1,-1,-1,-1,-1,-1,-1,-1,-1],"loss_changes":[1.5181157E1,1.0928328E1,5.1145525E0,0E0,9.98389E0,2.2855792E0,7.044506E-1,7.944603E0,1.7874908E-1,4.463482E-1,3.0544653E0,0E0,0E0,0E0,0E0,0E0,0E0,0E0,0E0,0E0,0E0],"parents":[2147483647,0,0,1,1,2,2,4,4,5,5,6,6,7,7,8,8,9,9,10,10],"right_children":[2,4,6,-1,8,10,12,14,16,18,20,-1,-1,-1,-1,-1,-1,-1,-1,-1,-1],"split_conditions":[2.7198904E0,-2.027595E-1,2.0272913E0,9.309454E-2,2.0964038E0,4.2809076E0,4.2809076E0,6.760495E0,2.0272913E0,1.4526036E-1,1.4526036E-1,6.7376755E-2,2.0483822E-2,-7.274269E-4,2.5849408E-2,9.2433125E-2,4.4289194E-2,2.1627251E-2,4.2763826E-2,-2.115418E-2,6.1313834E-2],"split_indices":[4,5,5,0,3,4,4,2,5,3,3,0,0,0,0,0,0,0,0,0,0],"split_type":[0,0,0,0,0,0,0,0,0,0,0,0,0,0,0,0,0,0,0,0,0],"sum_hessian":[1.5553383E4,1.5313343E4,2.4003935E2,1.1498582E1,1.5301845E4,2.0741881E2,3.2620556E1,1.5288101E4,1.3743916E1,1.7837878E2,2.9040018E1,2.7774174E1,4.8463826E0,1.5175783E4,1.1231773E2,9.567187E0,4.1767282E0,1.6739821E2,1.0980581E1,2.4582531E1,4.457487E0],"tree_param":{"num_deleted":"0","num_feature":"17","num_nodes":"21","size_leaf_vector":"1"}},{"base_weights":[2.625784E-3,1.7588097E-3,8.036295E-2,9.2982076E-2,1.0135082E-3,-1.2300268E-3,2.92502E-1,3.9231148E-2,-2.879294E-4,-6.900771E-3,4.909999E-2],"categories":[],"categories_nodes":[],"categories_segments":[],"categories_sizes":[],"default_left":[0,0,0,0,0,0,0,0,0,0,0],"id":78,"left_children":[1,3,-1,-1,5,7,9,-1,-1,-1,-1],"loss_changes":[1.0803644E1,1.0750173E1,0E0,0E0,1.015766E1,1.000582E1,8.547158E0,0E0,0E0,0E0,0E0],"parents":[2147483647,0,0,1,1,4,4,5,5,6,6],"right_children":[2,4,-1,-1,6,8,10,-1,-1,-1,-1],"split_conditions":[3.9394834E0,-2.027595E-1,8.036295E-2,9.2982076E-2,6.760495E0,-1.1058601E0,-2.3229578E-1,3.9231148E-2,-2.879294E-4,-6.900771E-3,4.909999E-2],"split_indices":[7,5,0,0,2,1,1,0,0,0,0],"split_type":[0,0,0,0,0,0,0,0,0,0,0],"sum_hessian":[1.555817E4,1.554235E4,1.5820219E1,1.1471337E1,1.5530878E4,1.5413241E4,1.1763719E2,6.3336216E1,1.5349905E4,4.1928406E1,7.5708786E1],"tree_param":{"num_deleted":"0","num_feature":"17","num_nodes":"11","size_leaf_vector":"1"}},{"base_weights":[-5.9783173E-4,-1.3046312E-3,9.16635E-2,1.3693663E-2,-4.4066902E-2,1.2729517E-2,7.109096E-1,-1.2372116E-1,1.6299358E-1,9.3825385E-2,1.2030788E-3,1.882661E-2,7.997886E-2,-1.3211319E-2,1.6081488E-2,1.4526893E-2,5.0808962E-2],"categories":[],"categories_nodes":[],"categories_segments":[],"categories_sizes":[],"default_left":[0,0,0,0,0,0,0,0,0,0,0,0,0,0,0,0,0],"id":79,"left_children":[1,3,-1,5,7,9,11,13,15,-1,-1,-1,-1,-1,-1,-1,-1],"loss_changes":[1.0059943E1,9.944672E0,0E0,7.707616E0,6.642561E1,7.402749E0,5.849552E-1,6.965637E0,6.770687E0,0E0,0E0,0E0,0E0,0E0,0E0,0E0,0E0],"parents":[2147483647,0,0,1,1,3,3,4,4,5,5,6,6,7,7,8,8],"right_children":[2,4,-1,6,8,10,12,14,16,-1,-1,-1,-1,-1,-1,-1,-1],"split_conditions":[8.4822816E-1,-5.7582922E-2,9.16635E-2,1.198809E1,2.0272913E0,-1.1932164E0,-8.4379077E-1,3.6310986E-1,1.4526036E-1,9.3825385E-2,1.2030788E-3,1.882661E-2,7.997886E-2,-1.3211319E-2,1.6081488E-2,1.4526893E-2,5.0808962E-2],"split_indices":[9,1,0,6,5,1,1,7,3,0,0,0,0,0,0,0,0],"split_type":[0,0,0,0,0,0,0,0,0,0,0,0,0,0,0,0,0],"sum_hessian":[1.551458E4,1.5503632E4,1.0948182E1,1.1478412E4,4.0252197E3,1.1463578E4,1.4834164E1,2.9072356E3,1.1179843E3,7.6357203E0,1.1455942E4,2.609209E0,1.2224955E1,2.824467E3,8.276842E1,1.0647196E3,5.3264618E1],"tree_param":{"num_deleted":"0","num_feature":"17","num_nodes":"17","size_leaf_vector":"1"}},{"base_weights":[-2.6263634E-3,-8.49636E-3,1.7656529E-1,1.381612E-2,-4.5461494E-2,1.383046E-1,8.1473976E-1,3.2961126E-2,-9.6615314E-2,-9.725826E-2,1.12434775E-1,1.05229795E-1,4.891916E-1,1.0910477E-1,6.28832E-1,7.1349205E-3,-2.2717511E-4,-3.9224293E-2,6.0337367E-3,-9.888589E-3,1.167961E-1,1.0206859E-2,3.29563E-2,5.0857454E-3,2.0259125E-2,4.060423E-2,1.01002194E-1,2.6924955E-3,8.5304014E-2],"categories":[],"categories_nodes":[],"categories_segments":[],"categories_sizes":[],"default_left":[0,0,0,0,0,0,0,0,0,0,0,0,0,0,0,0,0,0,0,0,0,0,0,0,0,0,0,0,0],"id":80,"left_children":[1,3,5,7,9,11,13,15,17,19,21,23,25,-1,27,-1,-1,-1,-1,-1,-1,-1,-1,-1,-1,-1,-1,-1,-1],"loss_changes":[1.634977E1,1.241387E1,1.1925758E1,1.9847237E1,4.634438E1,5.3607874E0,7.3591423E-1,1.0820325E1,6.438202E1,8.901367E0,3.1171436E0,2.252544E0,1.3177366E0,0E0,2.5288382E0,0E0,0E0,0E0,0E0,0E0,0E0,0E0,0E0,0E0,0E0,0E0,0E0,0E0,0E0],"parents":[2147483647,0,0,1,1,2,2,3,3,4,4,5,5,6,6,7,7,8,8,9,9,10,10,11,11,12,12,14,14],"right_children":[2,4,6,8,10,12,14,16,18,20,22,24,26,-1,28,-1,-1,-1,-1,-1,-1,-1,-1,-1,-1,-1,-1,-1,-1],"split_conditions":[6.412685E-1,-2.3229578E-1,-2.928474E-2,2.0272913E0,2.0272913E0,1.4274764E0,8.055156E-1,-5.817215E-1,-5.817215E-1,1.965678E1,-2.928474E-2,2.0272913E0,2.0389714E0,1.0910477E-1,1.3680495E0,7.1349205E-3,-2.2717511E-4,-3.9224293E-2,6.0337367E-3,-9.888589E-3,1.167961E-1,1.0206859E-2,3.29563E-2,5.0857454E-3,2.0259125E-2,4.060423E-2,1.01002194E-1,2.6924955E-3,8.5304014E-2],"split_indices":[1,1,7,5,5,1,7,1,1,14,7,5,1,0,7,0,0,0,0,0,0,0,0,0,0,0,0,0,0],"split_type":[0,0,0,0,0,0,0,0,0,0,0,0,0,0,0,0,0,0,0,0,0,0,0,0,0,0,0,0,0],"sum_hessian":[1.5541333E4,1.5049297E4,4.9203537E2,9.385034E3,5.664263E3,4.6535266E2,2.6682716E1,7.998987E3,1.3860472E3,4.265409E3,1.3988536E3,4.264547E2,3.889797E1,8.773794E0,1.7908922E1,3.8275952E3,4.1713916E3,4.801547E2,9.058926E2,4.26085E3,4.5595007E0,1.3365154E3,6.233819E1,2.746156E2,1.5183911E2,3.507753E1,3.8204381E0,5.1644855E0,1.2744437E1],"tree_param":{"num_deleted":"0",